digraph Tree {
node [shape=box, style="filled, rounded", color="black", fontname="helvetica"] ;
edge [fontname="helvetica"] ;
0 [label="month_oct <= 3.85\nentropy = 0.52\nsamples = 22827\nvalue = [31906, 4262]\nclass = no", fillcolor="#e89253"] ;
1 [label="poutcome_unknown <= -0.82\nentropy = 0.51\nsamples = 22458\nvalue = [31566, 4006]\nclass = no", fillcolor="#e89152"] ;
0 -> 1 [labeldistance=2.5, labelangle=45, headlabel="True"] ;
2 [label="housing_no <= 0.11\nentropy = 0.74\nsamples = 3998\nvalue = [5068, 1359]\nclass = no", fillcolor="#eca36e"] ;
1 -> 2 ;
3 [label="balance <= -0.13\nentropy = 0.5\nsamples = 2536\nvalue = [3665, 454]\nclass = no", fillcolor="#e89152"] ;
2 -> 3 ;
4 [label="month_sep <= 4.4\nentropy = 0.44\nsamples = 1680\nvalue = [2475, 251]\nclass = no", fillcolor="#e88e4d"] ;
3 -> 4 ;
5 [label="age <= -0.13\nentropy = 0.42\nsamples = 1655\nvalue = [2454, 231]\nclass = no", fillcolor="#e78d4c"] ;
4 -> 5 ;
6 [label="job_services <= 1.42\nentropy = 0.48\nsamples = 936\nvalue = [1347, 157]\nclass = no", fillcolor="#e89050"] ;
5 -> 6 ;
7 [label="month_jan <= 2.68\nentropy = 0.51\nsamples = 810\nvalue = [1158, 149]\nclass = no", fillcolor="#e89152"] ;
6 -> 7 ;
8 [label="day <= 0.68\nentropy = 0.53\nsamples = 761\nvalue = [1078, 146]\nclass = no", fillcolor="#e99254"] ;
7 -> 8 ;
9 [label="poutcome_success <= 2.62\nentropy = 0.49\nsamples = 716\nvalue = [1035, 122]\nclass = no", fillcolor="#e89050"] ;
8 -> 9 ;
10 [label="month_may <= 0.43\nentropy = 0.37\nsamples = 664\nvalue = [999, 76]\nclass = no", fillcolor="#e78b48"] ;
9 -> 10 ;
11 [label="month_aug <= 1.04\nentropy = 0.43\nsamples = 302\nvalue = [430, 42]\nclass = no", fillcolor="#e88d4c"] ;
10 -> 11 ;
12 [label="month_nov <= 1.44\nentropy = 0.38\nsamples = 289\nvalue = [414, 33]\nclass = no", fillcolor="#e78b49"] ;
11 -> 12 ;
13 [label="duration <= 0.24\nentropy = 0.43\nsamples = 212\nvalue = [300, 29]\nclass = no", fillcolor="#e88d4c"] ;
12 -> 13 ;
14 [label="month_apr <= 1.78\nentropy = 0.25\nsamples = 158\nvalue = [236, 10]\nclass = no", fillcolor="#e68641"] ;
13 -> 14 ;
15 [label="job_admin. <= 1.22\nentropy = 0.34\nsamples = 80\nvalue = [117, 8]\nclass = no", fillcolor="#e78a47"] ;
14 -> 15 ;
16 [label="month_jul <= 0.97\nentropy = 0.32\nsamples = 64\nvalue = [97, 6]\nclass = no", fillcolor="#e78945"] ;
15 -> 16 ;
17 [label="pdays <= 2.45\nentropy = 0.25\nsamples = 62\nvalue = [93, 4]\nclass = no", fillcolor="#e68642"] ;
16 -> 17 ;
18 [label="pdays <= 1.64\nentropy = 0.15\nsamples = 60\nvalue = [91, 2]\nclass = no", fillcolor="#e6843d"] ;
17 -> 18 ;
19 [label="age <= -1.03\nentropy = 0.5\nsamples = 13\nvalue = [16, 2]\nclass = no", fillcolor="#e89152"] ;
18 -> 19 ;
20 [label="entropy = 0.0\nsamples = 2\nvalue = [6, 0]\nclass = no", fillcolor="#e58139"] ;
19 -> 20 ;
21 [label="balance <= -0.39\nentropy = 0.65\nsamples = 11\nvalue = [10, 2]\nclass = no", fillcolor="#ea9a61"] ;
19 -> 21 ;
22 [label="entropy = 0.0\nsamples = 4\nvalue = [5, 0]\nclass = no", fillcolor="#e58139"] ;
21 -> 22 ;
23 [label="month_mar <= 4.71\nentropy = 0.86\nsamples = 7\nvalue = [5, 2]\nclass = no", fillcolor="#efb388"] ;
21 -> 23 ;
24 [label="education_secondary <= -0.03\nentropy = 0.65\nsamples = 6\nvalue = [5, 1]\nclass = no", fillcolor="#ea9a61"] ;
23 -> 24 ;
25 [label="entropy = 0.0\nsamples = 4\nvalue = [4, 0]\nclass = no", fillcolor="#e58139"] ;
24 -> 25 ;
26 [label="campaign <= -0.08\nentropy = 1.0\nsamples = 2\nvalue = [1, 1]\nclass = no", fillcolor="#ffffff"] ;
24 -> 26 ;
27 [label="entropy = 0.0\nsamples = 1\nvalue = [1, 0]\nclass = no", fillcolor="#e58139"] ;
26 -> 27 ;
28 [label="entropy = 0.0\nsamples = 1\nvalue = [0, 1]\nclass = yes", fillcolor="#399de5"] ;
26 -> 28 ;
29 [label="entropy = 0.0\nsamples = 1\nvalue = [0, 1]\nclass = yes", fillcolor="#399de5"] ;
23 -> 29 ;
30 [label="entropy = 0.0\nsamples = 47\nvalue = [75, 0]\nclass = no", fillcolor="#e58139"] ;
18 -> 30 ;
31 [label="pdays <= 2.59\nentropy = 1.0\nsamples = 2\nvalue = [2, 2]\nclass = no", fillcolor="#ffffff"] ;
17 -> 31 ;
32 [label="entropy = 0.0\nsamples = 1\nvalue = [0, 2]\nclass = yes", fillcolor="#399de5"] ;
31 -> 32 ;
33 [label="entropy = 0.0\nsamples = 1\nvalue = [2, 0]\nclass = no", fillcolor="#e58139"] ;
31 -> 33 ;
34 [label="balance <= -0.36\nentropy = 0.92\nsamples = 2\nvalue = [4, 2]\nclass = no", fillcolor="#f2c09c"] ;
16 -> 34 ;
35 [label="entropy = 0.0\nsamples = 1\nvalue = [4, 0]\nclass = no", fillcolor="#e58139"] ;
34 -> 35 ;
36 [label="entropy = 0.0\nsamples = 1\nvalue = [0, 2]\nclass = yes", fillcolor="#399de5"] ;
34 -> 36 ;
37 [label="day <= -1.0\nentropy = 0.44\nsamples = 16\nvalue = [20, 2]\nclass = no", fillcolor="#e88e4d"] ;
15 -> 37 ;
38 [label="entropy = 0.0\nsamples = 13\nvalue = [19, 0]\nclass = no", fillcolor="#e58139"] ;
37 -> 38 ;
39 [label="duration <= -0.7\nentropy = 0.92\nsamples = 3\nvalue = [1, 2]\nclass = yes", fillcolor="#9ccef2"] ;
37 -> 39 ;
40 [label="entropy = 0.0\nsamples = 1\nvalue = [1, 0]\nclass = no", fillcolor="#e58139"] ;
39 -> 40 ;
41 [label="entropy = 0.0\nsamples = 2\nvalue = [0, 2]\nclass = yes", fillcolor="#399de5"] ;
39 -> 41 ;
42 [label="balance <= -0.32\nentropy = 0.12\nsamples = 78\nvalue = [119, 2]\nclass = no", fillcolor="#e5833c"] ;
14 -> 42 ;
43 [label="job_blue-collar <= 0.7\nentropy = 0.21\nsamples = 42\nvalue = [57, 2]\nclass = no", fillcolor="#e68540"] ;
42 -> 43 ;
44 [label="campaign <= -0.41\nentropy = 0.3\nsamples = 27\nvalue = [36, 2]\nclass = no", fillcolor="#e68844"] ;
43 -> 44 ;
45 [label="balance <= -0.35\nentropy = 0.49\nsamples = 12\nvalue = [17, 2]\nclass = no", fillcolor="#e89050"] ;
44 -> 45 ;
46 [label="entropy = 0.0\nsamples = 10\nvalue = [17, 0]\nclass = no", fillcolor="#e58139"] ;
45 -> 46 ;
47 [label="entropy = 0.0\nsamples = 2\nvalue = [0, 2]\nclass = yes", fillcolor="#399de5"] ;
45 -> 47 ;
48 [label="entropy = 0.0\nsamples = 15\nvalue = [19, 0]\nclass = no", fillcolor="#e58139"] ;
44 -> 48 ;
49 [label="entropy = 0.0\nsamples = 15\nvalue = [21, 0]\nclass = no", fillcolor="#e58139"] ;
43 -> 49 ;
50 [label="entropy = 0.0\nsamples = 36\nvalue = [62, 0]\nclass = no", fillcolor="#e58139"] ;
42 -> 50 ;
51 [label="campaign <= -0.41\nentropy = 0.78\nsamples = 54\nvalue = [64, 19]\nclass = no", fillcolor="#eda674"] ;
13 -> 51 ;
52 [label="month_apr <= 1.78\nentropy = 0.95\nsamples = 28\nvalue = [25, 15]\nclass = no", fillcolor="#f5cdb0"] ;
51 -> 52 ;
53 [label="month_feb <= 1.89\nentropy = 0.65\nsamples = 6\nvalue = [1, 5]\nclass = yes", fillcolor="#61b1ea"] ;
52 -> 53 ;
54 [label="entropy = 0.0\nsamples = 4\nvalue = [0, 4]\nclass = yes", fillcolor="#399de5"] ;
53 -> 54 ;
55 [label="balance <= -0.26\nentropy = 1.0\nsamples = 2\nvalue = [1, 1]\nclass = no", fillcolor="#ffffff"] ;
53 -> 55 ;
56 [label="entropy = 0.0\nsamples = 1\nvalue = [1, 0]\nclass = no", fillcolor="#e58139"] ;
55 -> 56 ;
57 [label="entropy = 0.0\nsamples = 1\nvalue = [0, 1]\nclass = yes", fillcolor="#399de5"] ;
55 -> 57 ;
58 [label="pdays <= 3.02\nentropy = 0.87\nsamples = 22\nvalue = [24, 10]\nclass = no", fillcolor="#f0b58b"] ;
52 -> 58 ;
59 [label="default_no <= -3.61\nentropy = 0.74\nsamples = 19\nvalue = [23, 6]\nclass = no", fillcolor="#eca26d"] ;
58 -> 59 ;
60 [label="entropy = 0.0\nsamples = 1\nvalue = [0, 1]\nclass = yes", fillcolor="#399de5"] ;
59 -> 60 ;
61 [label="job_blue-collar <= 0.7\nentropy = 0.68\nsamples = 18\nvalue = [23, 5]\nclass = no", fillcolor="#eb9c64"] ;
59 -> 61 ;
62 [label="education_secondary <= -0.03\nentropy = 0.83\nsamples = 12\nvalue = [14, 5]\nclass = no", fillcolor="#eeae80"] ;
61 -> 62 ;
63 [label="education_unknown <= 2.34\nentropy = 0.92\nsamples = 5\nvalue = [4, 2]\nclass = no", fillcolor="#f2c09c"] ;
62 -> 63 ;
64 [label="duration <= 1.02\nentropy = 0.97\nsamples = 4\nvalue = [3, 2]\nclass = no", fillcolor="#f6d5bd"] ;
63 -> 64 ;
65 [label="entropy = 0.0\nsamples = 2\nvalue = [2, 0]\nclass = no", fillcolor="#e58139"] ;
64 -> 65 ;
66 [label="poutcome_failure <= 1.26\nentropy = 0.92\nsamples = 2\nvalue = [1, 2]\nclass = yes", fillcolor="#9ccef2"] ;
64 -> 66 ;
67 [label="entropy = 0.0\nsamples = 1\nvalue = [0, 2]\nclass = yes", fillcolor="#399de5"] ;
66 -> 67 ;
68 [label="entropy = 0.0\nsamples = 1\nvalue = [1, 0]\nclass = no", fillcolor="#e58139"] ;
66 -> 68 ;
69 [label="entropy = 0.0\nsamples = 1\nvalue = [1, 0]\nclass = no", fillcolor="#e58139"] ;
63 -> 69 ;
70 [label="marital_married <= -0.21\nentropy = 0.78\nsamples = 7\nvalue = [10, 3]\nclass = no", fillcolor="#eda774"] ;
62 -> 70 ;
71 [label="day <= -1.0\nentropy = 0.92\nsamples = 3\nvalue = [4, 2]\nclass = no", fillcolor="#f2c09c"] ;
70 -> 71 ;
72 [label="entropy = 0.0\nsamples = 1\nvalue = [3, 0]\nclass = no", fillcolor="#e58139"] ;
71 -> 72 ;
73 [label="day <= -0.04\nentropy = 0.92\nsamples = 2\nvalue = [1, 2]\nclass = yes", fillcolor="#9ccef2"] ;
71 -> 73 ;
74 [label="entropy = 0.0\nsamples = 1\nvalue = [0, 2]\nclass = yes", fillcolor="#399de5"] ;
73 -> 74 ;
75 [label="entropy = 0.0\nsamples = 1\nvalue = [1, 0]\nclass = no", fillcolor="#e58139"] ;
73 -> 75 ;
76 [label="duration <= 3.25\nentropy = 0.59\nsamples = 4\nvalue = [6, 1]\nclass = no", fillcolor="#e9965a"] ;
70 -> 76 ;
77 [label="entropy = 0.0\nsamples = 3\nvalue = [6, 0]\nclass = no", fillcolor="#e58139"] ;
76 -> 77 ;
78 [label="entropy = 0.0\nsamples = 1\nvalue = [0, 1]\nclass = yes", fillcolor="#399de5"] ;
76 -> 78 ;
79 [label="entropy = 0.0\nsamples = 6\nvalue = [9, 0]\nclass = no", fillcolor="#e58139"] ;
61 -> 79 ;
80 [label="duration <= 1.6\nentropy = 0.72\nsamples = 3\nvalue = [1, 4]\nclass = yes", fillcolor="#6ab6ec"] ;
58 -> 80 ;
81 [label="entropy = 0.0\nsamples = 1\nvalue = [1, 0]\nclass = no", fillcolor="#e58139"] ;
80 -> 81 ;
82 [label="entropy = 0.0\nsamples = 2\nvalue = [0, 4]\nclass = yes", fillcolor="#399de5"] ;
80 -> 82 ;
83 [label="marital_married <= -0.21\nentropy = 0.45\nsamples = 26\nvalue = [39, 4]\nclass = no", fillcolor="#e88e4d"] ;
51 -> 83 ;
84 [label="pdays <= 2.09\nentropy = 0.74\nsamples = 11\nvalue = [15, 4]\nclass = no", fillcolor="#eca36e"] ;
83 -> 84 ;
85 [label="duration <= 1.68\nentropy = 0.99\nsamples = 4\nvalue = [3, 4]\nclass = yes", fillcolor="#cee6f8"] ;
84 -> 85 ;
86 [label="entropy = 0.0\nsamples = 2\nvalue = [0, 4]\nclass = yes", fillcolor="#399de5"] ;
85 -> 86 ;
87 [label="entropy = 0.0\nsamples = 2\nvalue = [3, 0]\nclass = no", fillcolor="#e58139"] ;
85 -> 87 ;
88 [label="entropy = 0.0\nsamples = 7\nvalue = [12, 0]\nclass = no", fillcolor="#e58139"] ;
84 -> 88 ;
89 [label="entropy = 0.0\nsamples = 15\nvalue = [24, 0]\nclass = no", fillcolor="#e58139"] ;
83 -> 89 ;
90 [label="balance <= -0.28\nentropy = 0.21\nsamples = 77\nvalue = [114, 4]\nclass = no", fillcolor="#e68540"] ;
12 -> 90 ;
91 [label="balance <= -0.28\nentropy = 0.28\nsamples = 52\nvalue = [78, 4]\nclass = no", fillcolor="#e68743"] ;
90 -> 91 ;
92 [label="day <= 0.32\nentropy = 0.23\nsamples = 51\nvalue = [78, 3]\nclass = no", fillcolor="#e68641"] ;
91 -> 92 ;
93 [label="entropy = 0.0\nsamples = 23\nvalue = [42, 0]\nclass = no", fillcolor="#e58139"] ;
92 -> 93 ;
94 [label="education_secondary <= -0.03\nentropy = 0.39\nsamples = 28\nvalue = [36, 3]\nclass = no", fillcolor="#e78c49"] ;
92 -> 94 ;
95 [label="age <= -0.65\nentropy = 0.61\nsamples = 14\nvalue = [17, 3]\nclass = no", fillcolor="#ea975c"] ;
94 -> 95 ;
96 [label="duration <= 0.39\nentropy = 0.92\nsamples = 7\nvalue = [6, 3]\nclass = no", fillcolor="#f2c09c"] ;
95 -> 96 ;
97 [label="entropy = 0.0\nsamples = 5\nvalue = [6, 0]\nclass = no", fillcolor="#e58139"] ;
96 -> 97 ;
98 [label="entropy = 0.0\nsamples = 2\nvalue = [0, 3]\nclass = yes", fillcolor="#399de5"] ;
96 -> 98 ;
99 [label="entropy = 0.0\nsamples = 7\nvalue = [11, 0]\nclass = no", fillcolor="#e58139"] ;
95 -> 99 ;
100 [label="entropy = 0.0\nsamples = 14\nvalue = [19, 0]\nclass = no", fillcolor="#e58139"] ;
94 -> 100 ;
101 [label="entropy = 0.0\nsamples = 1\nvalue = [0, 1]\nclass = yes", fillcolor="#399de5"] ;
91 -> 101 ;
102 [label="entropy = 0.0\nsamples = 25\nvalue = [36, 0]\nclass = no", fillcolor="#e58139"] ;
90 -> 102 ;
103 [label="pdays <= 6.23\nentropy = 0.94\nsamples = 13\nvalue = [16, 9]\nclass = no", fillcolor="#f4c8a8"] ;
11 -> 103 ;
104 [label="marital_married <= -0.21\nentropy = 0.79\nsamples = 11\nvalue = [16, 5]\nclass = no", fillcolor="#eda877"] ;
103 -> 104 ;
105 [label="day <= -1.24\nentropy = 0.98\nsamples = 6\nvalue = [7, 5]\nclass = no", fillcolor="#f8dbc6"] ;
104 -> 105 ;
106 [label="duration <= -0.12\nentropy = 0.65\nsamples = 2\nvalue = [1, 5]\nclass = yes", fillcolor="#61b1ea"] ;
105 -> 106 ;
107 [label="entropy = 0.0\nsamples = 1\nvalue = [1, 0]\nclass = no", fillcolor="#e58139"] ;
106 -> 107 ;
108 [label="entropy = 0.0\nsamples = 1\nvalue = [0, 5]\nclass = yes", fillcolor="#399de5"] ;
106 -> 108 ;
109 [label="entropy = 0.0\nsamples = 4\nvalue = [6, 0]\nclass = no", fillcolor="#e58139"] ;
105 -> 109 ;
110 [label="entropy = 0.0\nsamples = 5\nvalue = [9, 0]\nclass = no", fillcolor="#e58139"] ;
104 -> 110 ;
111 [label="entropy = 0.0\nsamples = 2\nvalue = [0, 4]\nclass = yes", fillcolor="#399de5"] ;
103 -> 111 ;
112 [label="duration <= 0.7\nentropy = 0.31\nsamples = 362\nvalue = [569, 34]\nclass = no", fillcolor="#e78945"] ;
10 -> 112 ;
113 [label="balance <= -0.44\nentropy = 0.02\nsamples = 311\nvalue = [518, 1]\nclass = no", fillcolor="#e58139"] ;
112 -> 113 ;
114 [label="loan_no <= -0.93\nentropy = 0.06\nsamples = 79\nvalue = [132, 1]\nclass = no", fillcolor="#e5823b"] ;
113 -> 114 ;
115 [label="entropy = 0.0\nsamples = 16\nvalue = [25, 0]\nclass = no", fillcolor="#e58139"] ;
114 -> 115 ;
116 [label="job_management <= 0.71\nentropy = 0.08\nsamples = 63\nvalue = [107, 1]\nclass = no", fillcolor="#e5823b"] ;
114 -> 116 ;
117 [label="education_tertiary <= 0.45\nentropy = 0.09\nsamples = 50\nvalue = [88, 1]\nclass = no", fillcolor="#e5823b"] ;
116 -> 117 ;
118 [label="entropy = 0.0\nsamples = 44\nvalue = [79, 0]\nclass = no", fillcolor="#e58139"] ;
117 -> 118 ;
119 [label="job_self-employed <= 2.53\nentropy = 0.47\nsamples = 6\nvalue = [9, 1]\nclass = no", fillcolor="#e88f4f"] ;
117 -> 119 ;
120 [label="poutcome_failure <= 1.26\nentropy = 0.54\nsamples = 5\nvalue = [7, 1]\nclass = no", fillcolor="#e99355"] ;
119 -> 120 ;
121 [label="entropy = 0.0\nsamples = 2\nvalue = [4, 0]\nclass = no", fillcolor="#e58139"] ;
120 -> 121 ;
122 [label="pdays <= 3.06\nentropy = 0.81\nsamples = 3\nvalue = [3, 1]\nclass = no", fillcolor="#eeab7b"] ;
120 -> 122 ;
123 [label="entropy = 0.0\nsamples = 1\nvalue = [0, 1]\nclass = yes", fillcolor="#399de5"] ;
122 -> 123 ;
124 [label="entropy = 0.0\nsamples = 2\nvalue = [3, 0]\nclass = no", fillcolor="#e58139"] ;
122 -> 124 ;
125 [label="entropy = 0.0\nsamples = 1\nvalue = [2, 0]\nclass = no", fillcolor="#e58139"] ;
119 -> 125 ;
126 [label="entropy = 0.0\nsamples = 13\nvalue = [19, 0]\nclass = no", fillcolor="#e58139"] ;
116 -> 126 ;
127 [label="entropy = 0.0\nsamples = 232\nvalue = [386, 0]\nclass = no", fillcolor="#e58139"] ;
113 -> 127 ;
128 [label="job_unemployed <= 2.81\nentropy = 0.97\nsamples = 51\nvalue = [51, 33]\nclass = no", fillcolor="#f6d3b9"] ;
112 -> 128 ;
129 [label="balance <= -0.27\nentropy = 0.97\nsamples = 50\nvalue = [49, 33]\nclass = no", fillcolor="#f7d6be"] ;
128 -> 129 ;
130 [label="job_admin. <= 1.22\nentropy = 1.0\nsamples = 40\nvalue = [32, 31]\nclass = no", fillcolor="#fefbf9"] ;
129 -> 130 ;
131 [label="job_blue-collar <= 0.7\nentropy = 1.0\nsamples = 35\nvalue = [30, 27]\nclass = no", fillcolor="#fcf2eb"] ;
130 -> 131 ;
132 [label="education_secondary <= -0.03\nentropy = 0.98\nsamples = 25\nvalue = [17, 24]\nclass = yes", fillcolor="#c5e2f7"] ;
131 -> 132 ;
133 [label="job_entrepreneur <= 2.61\nentropy = 1.0\nsamples = 19\nvalue = [15, 16]\nclass = yes", fillcolor="#f3f9fd"] ;
132 -> 133 ;
134 [label="age <= -0.23\nentropy = 1.0\nsamples = 18\nvalue = [15, 15]\nclass = no", fillcolor="#ffffff"] ;
133 -> 134 ;
135 [label="balance <= -0.53\nentropy = 0.98\nsamples = 16\nvalue = [11, 15]\nclass = yes", fillcolor="#cae5f8"] ;
134 -> 135 ;
136 [label="entropy = 0.0\nsamples = 1\nvalue = [4, 0]\nclass = no", fillcolor="#e58139"] ;
135 -> 136 ;
137 [label="duration <= 1.25\nentropy = 0.9\nsamples = 15\nvalue = [7, 15]\nclass = yes", fillcolor="#95cbf1"] ;
135 -> 137 ;
138 [label="education_tertiary <= 0.45\nentropy = 1.0\nsamples = 9\nvalue = [6, 6]\nclass = no", fillcolor="#ffffff"] ;
137 -> 138 ;
139 [label="entropy = 0.0\nsamples = 1\nvalue = [1, 0]\nclass = no", fillcolor="#e58139"] ;
138 -> 139 ;
140 [label="pdays <= 2.41\nentropy = 0.99\nsamples = 8\nvalue = [5, 6]\nclass = yes", fillcolor="#deeffb"] ;
138 -> 140 ;
141 [label="entropy = 0.0\nsamples = 3\nvalue = [0, 6]\nclass = yes", fillcolor="#399de5"] ;
140 -> 141 ;
142 [label="entropy = 0.0\nsamples = 5\nvalue = [5, 0]\nclass = no", fillcolor="#e58139"] ;
140 -> 142 ;
143 [label="day <= 0.08\nentropy = 0.47\nsamples = 6\nvalue = [1, 9]\nclass = yes", fillcolor="#4fa8e8"] ;
137 -> 143 ;
144 [label="entropy = 0.0\nsamples = 4\nvalue = [0, 8]\nclass = yes", fillcolor="#399de5"] ;
143 -> 144 ;
145 [label="poutcome_failure <= 1.26\nentropy = 1.0\nsamples = 2\nvalue = [1, 1]\nclass = no", fillcolor="#ffffff"] ;
143 -> 145 ;
146 [label="entropy = 0.0\nsamples = 1\nvalue = [0, 1]\nclass = yes", fillcolor="#399de5"] ;
145 -> 146 ;
147 [label="entropy = 0.0\nsamples = 1\nvalue = [1, 0]\nclass = no", fillcolor="#e58139"] ;
145 -> 147 ;
148 [label="entropy = 0.0\nsamples = 2\nvalue = [4, 0]\nclass = no", fillcolor="#e58139"] ;
134 -> 148 ;
149 [label="entropy = 0.0\nsamples = 1\nvalue = [0, 1]\nclass = yes", fillcolor="#399de5"] ;
133 -> 149 ;
150 [label="pdays <= 3.04\nentropy = 0.72\nsamples = 6\nvalue = [2, 8]\nclass = yes", fillcolor="#6ab6ec"] ;
132 -> 150 ;
151 [label="marital_divorced <= 1.2\nentropy = 0.97\nsamples = 3\nvalue = [2, 3]\nclass = yes", fillcolor="#bddef6"] ;
150 -> 151 ;
152 [label="pdays <= 2.64\nentropy = 0.81\nsamples = 2\nvalue = [1, 3]\nclass = yes", fillcolor="#7bbeee"] ;
151 -> 152 ;
153 [label="entropy = 0.0\nsamples = 1\nvalue = [0, 3]\nclass = yes", fillcolor="#399de5"] ;
152 -> 153 ;
154 [label="entropy = 0.0\nsamples = 1\nvalue = [1, 0]\nclass = no", fillcolor="#e58139"] ;
152 -> 154 ;
155 [label="entropy = 0.0\nsamples = 1\nvalue = [1, 0]\nclass = no", fillcolor="#e58139"] ;
151 -> 155 ;
156 [label="entropy = 0.0\nsamples = 3\nvalue = [0, 5]\nclass = yes", fillcolor="#399de5"] ;
150 -> 156 ;
157 [label="balance <= -0.55\nentropy = 0.7\nsamples = 10\nvalue = [13, 3]\nclass = no", fillcolor="#eb9e67"] ;
131 -> 157 ;
158 [label="entropy = 0.0\nsamples = 1\nvalue = [0, 2]\nclass = yes", fillcolor="#399de5"] ;
157 -> 158 ;
159 [label="pdays <= 2.62\nentropy = 0.37\nsamples = 9\nvalue = [13, 1]\nclass = no", fillcolor="#e78b48"] ;
157 -> 159 ;
160 [label="entropy = 0.0\nsamples = 5\nvalue = [9, 0]\nclass = no", fillcolor="#e58139"] ;
159 -> 160 ;
161 [label="duration <= 2.42\nentropy = 0.72\nsamples = 4\nvalue = [4, 1]\nclass = no", fillcolor="#eca06a"] ;
159 -> 161 ;
162 [label="entropy = 0.0\nsamples = 3\nvalue = [4, 0]\nclass = no", fillcolor="#e58139"] ;
161 -> 162 ;
163 [label="entropy = 0.0\nsamples = 1\nvalue = [0, 1]\nclass = yes", fillcolor="#399de5"] ;
161 -> 163 ;
164 [label="poutcome_failure <= 1.26\nentropy = 0.92\nsamples = 5\nvalue = [2, 4]\nclass = yes", fillcolor="#9ccef2"] ;
130 -> 164 ;
165 [label="campaign <= -0.41\nentropy = 0.81\nsamples = 3\nvalue = [1, 3]\nclass = yes", fillcolor="#7bbeee"] ;
164 -> 165 ;
166 [label="entropy = 0.0\nsamples = 1\nvalue = [0, 2]\nclass = yes", fillcolor="#399de5"] ;
165 -> 166 ;
167 [label="day <= -0.7\nentropy = 1.0\nsamples = 2\nvalue = [1, 1]\nclass = no", fillcolor="#ffffff"] ;
165 -> 167 ;
168 [label="entropy = 0.0\nsamples = 1\nvalue = [0, 1]\nclass = yes", fillcolor="#399de5"] ;
167 -> 168 ;
169 [label="entropy = 0.0\nsamples = 1\nvalue = [1, 0]\nclass = no", fillcolor="#e58139"] ;
167 -> 169 ;
170 [label="duration <= 2.51\nentropy = 1.0\nsamples = 2\nvalue = [1, 1]\nclass = no", fillcolor="#ffffff"] ;
164 -> 170 ;
171 [label="entropy = 0.0\nsamples = 1\nvalue = [1, 0]\nclass = no", fillcolor="#e58139"] ;
170 -> 171 ;
172 [label="entropy = 0.0\nsamples = 1\nvalue = [0, 1]\nclass = yes", fillcolor="#399de5"] ;
170 -> 172 ;
173 [label="balance <= -0.22\nentropy = 0.49\nsamples = 10\nvalue = [17, 2]\nclass = no", fillcolor="#e89050"] ;
129 -> 173 ;
174 [label="entropy = 0.0\nsamples = 5\nvalue = [9, 0]\nclass = no", fillcolor="#e58139"] ;
173 -> 174 ;
175 [label="education_secondary <= -0.03\nentropy = 0.72\nsamples = 5\nvalue = [8, 2]\nclass = no", fillcolor="#eca06a"] ;
173 -> 175 ;
176 [label="duration <= 2.17\nentropy = 0.65\nsamples = 3\nvalue = [5, 1]\nclass = no", fillcolor="#ea9a61"] ;
175 -> 176 ;
177 [label="entropy = 0.0\nsamples = 2\nvalue = [5, 0]\nclass = no", fillcolor="#e58139"] ;
176 -> 177 ;
178 [label="entropy = 0.0\nsamples = 1\nvalue = [0, 1]\nclass = yes", fillcolor="#399de5"] ;
176 -> 178 ;
179 [label="day <= -0.7\nentropy = 0.81\nsamples = 2\nvalue = [3, 1]\nclass = no", fillcolor="#eeab7b"] ;
175 -> 179 ;
180 [label="entropy = 0.0\nsamples = 1\nvalue = [3, 0]\nclass = no", fillcolor="#e58139"] ;
179 -> 180 ;
181 [label="entropy = 0.0\nsamples = 1\nvalue = [0, 1]\nclass = yes", fillcolor="#399de5"] ;
179 -> 181 ;
182 [label="entropy = 0.0\nsamples = 1\nvalue = [2, 0]\nclass = no", fillcolor="#e58139"] ;
128 -> 182 ;
183 [label="month_mar <= 4.71\nentropy = 0.99\nsamples = 52\nvalue = [36, 46]\nclass = yes", fillcolor="#d4eaf9"] ;
9 -> 183 ;
184 [label="job_entrepreneur <= 2.61\nentropy = 1.0\nsamples = 49\nvalue = [36, 40]\nclass = yes", fillcolor="#ebf5fc"] ;
183 -> 184 ;
185 [label="education_tertiary <= 0.45\nentropy = 0.99\nsamples = 47\nvalue = [31, 40]\nclass = yes", fillcolor="#d2e9f9"] ;
184 -> 185 ;
186 [label="day <= -1.12\nentropy = 0.96\nsamples = 30\nvalue = [19, 31]\nclass = yes", fillcolor="#b2d9f5"] ;
185 -> 186 ;
187 [label="entropy = 0.0\nsamples = 4\nvalue = [0, 8]\nclass = yes", fillcolor="#399de5"] ;
186 -> 187 ;
188 [label="duration <= 0.11\nentropy = 0.99\nsamples = 26\nvalue = [19, 23]\nclass = yes", fillcolor="#ddeefa"] ;
186 -> 188 ;
189 [label="marital_divorced <= 1.2\nentropy = 0.81\nsamples = 16\nvalue = [18, 6]\nclass = no", fillcolor="#eeab7b"] ;
188 -> 189 ;
190 [label="loan_no <= -0.93\nentropy = 0.85\nsamples = 15\nvalue = [16, 6]\nclass = no", fillcolor="#efb083"] ;
189 -> 190 ;
191 [label="entropy = 0.0\nsamples = 2\nvalue = [2, 0]\nclass = no", fillcolor="#e58139"] ;
190 -> 191 ;
192 [label="campaign <= -0.08\nentropy = 0.88\nsamples = 13\nvalue = [14, 6]\nclass = no", fillcolor="#f0b78e"] ;
190 -> 192 ;
193 [label="job_blue-collar <= 0.7\nentropy = 0.78\nsamples = 9\nvalue = [10, 3]\nclass = no", fillcolor="#eda774"] ;
192 -> 193 ;
194 [label="balance <= -0.23\nentropy = 1.0\nsamples = 5\nvalue = [3, 3]\nclass = no", fillcolor="#ffffff"] ;
193 -> 194 ;
195 [label="month_aug <= 1.04\nentropy = 0.81\nsamples = 4\nvalue = [3, 1]\nclass = no", fillcolor="#eeab7b"] ;
194 -> 195 ;
196 [label="job_technician <= 0.88\nentropy = 0.92\nsamples = 3\nvalue = [2, 1]\nclass = no", fillcolor="#f2c09c"] ;
195 -> 196 ;
197 [label="entropy = 0.0\nsamples = 1\nvalue = [0, 1]\nclass = yes", fillcolor="#399de5"] ;
196 -> 197 ;
198 [label="entropy = 0.0\nsamples = 2\nvalue = [2, 0]\nclass = no", fillcolor="#e58139"] ;
196 -> 198 ;
199 [label="entropy = 0.0\nsamples = 1\nvalue = [1, 0]\nclass = no", fillcolor="#e58139"] ;
195 -> 199 ;
200 [label="entropy = 0.0\nsamples = 1\nvalue = [0, 2]\nclass = yes", fillcolor="#399de5"] ;
194 -> 200 ;
201 [label="entropy = 0.0\nsamples = 4\nvalue = [7, 0]\nclass = no", fillcolor="#e58139"] ;
193 -> 201 ;
202 [label="balance <= -0.32\nentropy = 0.99\nsamples = 4\nvalue = [4, 3]\nclass = no", fillcolor="#f8e0ce"] ;
192 -> 202 ;
203 [label="entropy = 0.0\nsamples = 2\nvalue = [4, 0]\nclass = no", fillcolor="#e58139"] ;
202 -> 203 ;
204 [label="entropy = 0.0\nsamples = 2\nvalue = [0, 3]\nclass = yes", fillcolor="#399de5"] ;
202 -> 204 ;
205 [label="entropy = 0.0\nsamples = 1\nvalue = [2, 0]\nclass = no", fillcolor="#e58139"] ;
189 -> 205 ;
206 [label="job_admin. <= 1.22\nentropy = 0.31\nsamples = 10\nvalue = [1, 17]\nclass = yes", fillcolor="#45a3e7"] ;
188 -> 206 ;
207 [label="campaign <= -0.41\nentropy = 0.34\nsamples = 8\nvalue = [1, 15]\nclass = yes", fillcolor="#46a4e7"] ;
206 -> 207 ;
208 [label="duration <= 1.39\nentropy = 0.41\nsamples = 6\nvalue = [1, 11]\nclass = yes", fillcolor="#4ba6e7"] ;
207 -> 208 ;
209 [label="previous <= 0.79\nentropy = 0.65\nsamples = 3\nvalue = [1, 5]\nclass = yes", fillcolor="#61b1ea"] ;
208 -> 209 ;
210 [label="entropy = 0.0\nsamples = 1\nvalue = [0, 3]\nclass = yes", fillcolor="#399de5"] ;
209 -> 210 ;
211 [label="pdays <= 1.61\nentropy = 0.92\nsamples = 2\nvalue = [1, 2]\nclass = yes", fillcolor="#9ccef2"] ;
209 -> 211 ;
212 [label="entropy = 0.0\nsamples = 1\nvalue = [0, 2]\nclass = yes", fillcolor="#399de5"] ;
211 -> 212 ;
213 [label="entropy = 0.0\nsamples = 1\nvalue = [1, 0]\nclass = no", fillcolor="#e58139"] ;
211 -> 213 ;
214 [label="entropy = 0.0\nsamples = 3\nvalue = [0, 6]\nclass = yes", fillcolor="#399de5"] ;
208 -> 214 ;
215 [label="entropy = 0.0\nsamples = 2\nvalue = [0, 4]\nclass = yes", fillcolor="#399de5"] ;
207 -> 215 ;
216 [label="entropy = 0.0\nsamples = 2\nvalue = [0, 2]\nclass = yes", fillcolor="#399de5"] ;
206 -> 216 ;
217 [label="campaign <= -0.08\nentropy = 0.99\nsamples = 17\nvalue = [12, 9]\nclass = no", fillcolor="#f8e0ce"] ;
185 -> 217 ;
218 [label="job_blue-collar <= 0.7\nentropy = 0.99\nsamples = 12\nvalue = [6, 8]\nclass = yes", fillcolor="#cee6f8"] ;
217 -> 218 ;
219 [label="month_jun <= 1.19\nentropy = 0.96\nsamples = 11\nvalue = [5, 8]\nclass = yes", fillcolor="#b5daf5"] ;
218 -> 219 ;
220 [label="marital_married <= -0.21\nentropy = 0.99\nsamples = 10\nvalue = [5, 6]\nclass = yes", fillcolor="#deeffb"] ;
219 -> 220 ;
221 [label="day <= -0.16\nentropy = 0.92\nsamples = 3\nvalue = [1, 2]\nclass = yes", fillcolor="#9ccef2"] ;
220 -> 221 ;
222 [label="entropy = 0.0\nsamples = 1\nvalue = [1, 0]\nclass = no", fillcolor="#e58139"] ;
221 -> 222 ;
223 [label="entropy = 0.0\nsamples = 2\nvalue = [0, 2]\nclass = yes", fillcolor="#399de5"] ;
221 -> 223 ;
224 [label="balance <= -0.36\nentropy = 1.0\nsamples = 7\nvalue = [4, 4]\nclass = no", fillcolor="#ffffff"] ;
220 -> 224 ;
225 [label="entropy = 0.0\nsamples = 3\nvalue = [0, 4]\nclass = yes", fillcolor="#399de5"] ;
224 -> 225 ;
226 [label="entropy = 0.0\nsamples = 4\nvalue = [4, 0]\nclass = no", fillcolor="#e58139"] ;
224 -> 226 ;
227 [label="entropy = 0.0\nsamples = 1\nvalue = [0, 2]\nclass = yes", fillcolor="#399de5"] ;
219 -> 227 ;
228 [label="entropy = 0.0\nsamples = 1\nvalue = [1, 0]\nclass = no", fillcolor="#e58139"] ;
218 -> 228 ;
229 [label="age <= -1.08\nentropy = 0.59\nsamples = 5\nvalue = [6, 1]\nclass = no", fillcolor="#e9965a"] ;
217 -> 229 ;
230 [label="loan_no <= -0.93\nentropy = 0.92\nsamples = 3\nvalue = [2, 1]\nclass = no", fillcolor="#f2c09c"] ;
229 -> 230 ;
231 [label="entropy = 0.0\nsamples = 1\nvalue = [1, 0]\nclass = no", fillcolor="#e58139"] ;
230 -> 231 ;
232 [label="job_unemployed <= 2.81\nentropy = 1.0\nsamples = 2\nvalue = [1, 1]\nclass = no", fillcolor="#ffffff"] ;
230 -> 232 ;
233 [label="entropy = 0.0\nsamples = 1\nvalue = [1, 0]\nclass = no", fillcolor="#e58139"] ;
232 -> 233 ;
234 [label="entropy = 0.0\nsamples = 1\nvalue = [0, 1]\nclass = yes", fillcolor="#399de5"] ;
232 -> 234 ;
235 [label="entropy = 0.0\nsamples = 2\nvalue = [4, 0]\nclass = no", fillcolor="#e58139"] ;
229 -> 235 ;
236 [label="entropy = 0.0\nsamples = 2\nvalue = [5, 0]\nclass = no", fillcolor="#e58139"] ;
184 -> 236 ;
237 [label="entropy = 0.0\nsamples = 3\nvalue = [0, 6]\nclass = yes", fillcolor="#399de5"] ;
183 -> 237 ;
238 [label="education_secondary <= -0.03\nentropy = 0.94\nsamples = 45\nvalue = [43, 24]\nclass = no", fillcolor="#f4c7a8"] ;
8 -> 238 ;
239 [label="pdays <= 3.91\nentropy = 1.0\nsamples = 23\nvalue = [18, 16]\nclass = no", fillcolor="#fcf1e9"] ;
238 -> 239 ;
240 [label="month_aug <= 1.04\nentropy = 0.96\nsamples = 18\nvalue = [10, 16]\nclass = yes", fillcolor="#b5daf5"] ;
239 -> 240 ;
241 [label="campaign <= -0.41\nentropy = 0.92\nsamples = 15\nvalue = [7, 14]\nclass = yes", fillcolor="#9ccef2"] ;
240 -> 241 ;
242 [label="job_blue-collar <= 0.7\nentropy = 0.99\nsamples = 10\nvalue = [7, 9]\nclass = yes", fillcolor="#d3e9f9"] ;
241 -> 242 ;
243 [label="loan_no <= -0.93\nentropy = 1.0\nsamples = 9\nvalue = [7, 6]\nclass = no", fillcolor="#fbede3"] ;
242 -> 243 ;
244 [label="month_feb <= 1.89\nentropy = 0.92\nsamples = 2\nvalue = [1, 2]\nclass = yes", fillcolor="#9ccef2"] ;
243 -> 244 ;
245 [label="entropy = 0.0\nsamples = 1\nvalue = [1, 0]\nclass = no", fillcolor="#e58139"] ;
244 -> 245 ;
246 [label="entropy = 0.0\nsamples = 1\nvalue = [0, 2]\nclass = yes", fillcolor="#399de5"] ;
244 -> 246 ;
247 [label="marital_married <= -0.21\nentropy = 0.97\nsamples = 7\nvalue = [6, 4]\nclass = no", fillcolor="#f6d5bd"] ;
243 -> 247 ;
248 [label="age <= -0.56\nentropy = 0.72\nsamples = 3\nvalue = [1, 4]\nclass = yes", fillcolor="#6ab6ec"] ;
247 -> 248 ;
249 [label="entropy = 0.0\nsamples = 1\nvalue = [1, 0]\nclass = no", fillcolor="#e58139"] ;
248 -> 249 ;
250 [label="entropy = 0.0\nsamples = 2\nvalue = [0, 4]\nclass = yes", fillcolor="#399de5"] ;
248 -> 250 ;
251 [label="entropy = 0.0\nsamples = 4\nvalue = [5, 0]\nclass = no", fillcolor="#e58139"] ;
247 -> 251 ;
252 [label="entropy = 0.0\nsamples = 1\nvalue = [0, 3]\nclass = yes", fillcolor="#399de5"] ;
242 -> 252 ;
253 [label="entropy = 0.0\nsamples = 5\nvalue = [0, 5]\nclass = yes", fillcolor="#399de5"] ;
241 -> 253 ;
254 [label="day <= 1.28\nentropy = 0.97\nsamples = 3\nvalue = [3, 2]\nclass = no", fillcolor="#f6d5bd"] ;
240 -> 254 ;
255 [label="entropy = 0.0\nsamples = 1\nvalue = [0, 2]\nclass = yes", fillcolor="#399de5"] ;
254 -> 255 ;
256 [label="entropy = 0.0\nsamples = 2\nvalue = [3, 0]\nclass = no", fillcolor="#e58139"] ;
254 -> 256 ;
257 [label="entropy = 0.0\nsamples = 5\nvalue = [8, 0]\nclass = no", fillcolor="#e58139"] ;
239 -> 257 ;
258 [label="campaign <= 0.24\nentropy = 0.8\nsamples = 22\nvalue = [25, 8]\nclass = no", fillcolor="#eda978"] ;
238 -> 258 ;
259 [label="month_aug <= 1.04\nentropy = 0.9\nsamples = 17\nvalue = [17, 8]\nclass = no", fillcolor="#f1bc96"] ;
258 -> 259 ;
260 [label="month_jul <= 0.97\nentropy = 0.87\nsamples = 16\nvalue = [17, 7]\nclass = no", fillcolor="#f0b58b"] ;
259 -> 260 ;
261 [label="month_apr <= 1.78\nentropy = 0.9\nsamples = 15\nvalue = [15, 7]\nclass = no", fillcolor="#f1bc95"] ;
260 -> 261 ;
262 [label="contact_unknown <= 0.47\nentropy = 0.96\nsamples = 12\nvalue = [11, 7]\nclass = no", fillcolor="#f6d1b7"] ;
261 -> 262 ;
263 [label="age <= -1.12\nentropy = 0.94\nsamples = 11\nvalue = [11, 6]\nclass = no", fillcolor="#f3c6a5"] ;
262 -> 263 ;
264 [label="entropy = 0.0\nsamples = 1\nvalue = [2, 0]\nclass = no", fillcolor="#e58139"] ;
263 -> 264 ;
265 [label="campaign <= -0.08\nentropy = 0.97\nsamples = 10\nvalue = [9, 6]\nclass = no", fillcolor="#f6d5bd"] ;
263 -> 265 ;
266 [label="job_blue-collar <= 0.7\nentropy = 1.0\nsamples = 8\nvalue = [6, 6]\nclass = no", fillcolor="#ffffff"] ;
265 -> 266 ;
267 [label="job_technician <= 0.88\nentropy = 0.97\nsamples = 7\nvalue = [4, 6]\nclass = yes", fillcolor="#bddef6"] ;
266 -> 267 ;
268 [label="marital_married <= -0.21\nentropy = 0.92\nsamples = 5\nvalue = [4, 2]\nclass = no", fillcolor="#f2c09c"] ;
267 -> 268 ;
269 [label="previous <= 1.21\nentropy = 0.92\nsamples = 3\nvalue = [1, 2]\nclass = yes", fillcolor="#9ccef2"] ;
268 -> 269 ;
270 [label="entropy = 0.0\nsamples = 2\nvalue = [0, 2]\nclass = yes", fillcolor="#399de5"] ;
269 -> 270 ;
271 [label="entropy = 0.0\nsamples = 1\nvalue = [1, 0]\nclass = no", fillcolor="#e58139"] ;
269 -> 271 ;
272 [label="entropy = 0.0\nsamples = 2\nvalue = [3, 0]\nclass = no", fillcolor="#e58139"] ;
268 -> 272 ;
273 [label="entropy = 0.0\nsamples = 2\nvalue = [0, 4]\nclass = yes", fillcolor="#399de5"] ;
267 -> 273 ;
274 [label="entropy = 0.0\nsamples = 1\nvalue = [2, 0]\nclass = no", fillcolor="#e58139"] ;
266 -> 274 ;
275 [label="entropy = 0.0\nsamples = 2\nvalue = [3, 0]\nclass = no", fillcolor="#e58139"] ;
265 -> 275 ;
276 [label="entropy = 0.0\nsamples = 1\nvalue = [0, 1]\nclass = yes", fillcolor="#399de5"] ;
262 -> 276 ;
277 [label="entropy = 0.0\nsamples = 3\nvalue = [4, 0]\nclass = no", fillcolor="#e58139"] ;
261 -> 277 ;
278 [label="entropy = 0.0\nsamples = 1\nvalue = [2, 0]\nclass = no", fillcolor="#e58139"] ;
260 -> 278 ;
279 [label="entropy = 0.0\nsamples = 1\nvalue = [0, 1]\nclass = yes", fillcolor="#399de5"] ;
259 -> 279 ;
280 [label="entropy = 0.0\nsamples = 5\nvalue = [8, 0]\nclass = no", fillcolor="#e58139"] ;
258 -> 280 ;
281 [label="duration <= -0.02\nentropy = 0.22\nsamples = 49\nvalue = [80, 3]\nclass = no", fillcolor="#e68640"] ;
7 -> 281 ;
282 [label="entropy = 0.0\nsamples = 36\nvalue = [63, 0]\nclass = no", fillcolor="#e58139"] ;
281 -> 282 ;
283 [label="job_admin. <= 1.22\nentropy = 0.61\nsamples = 13\nvalue = [17, 3]\nclass = no", fillcolor="#ea975c"] ;
281 -> 283 ;
284 [label="entropy = 0.0\nsamples = 10\nvalue = [15, 0]\nclass = no", fillcolor="#e58139"] ;
283 -> 284 ;
285 [label="poutcome_failure <= 1.26\nentropy = 0.97\nsamples = 3\nvalue = [2, 3]\nclass = yes", fillcolor="#bddef6"] ;
283 -> 285 ;
286 [label="entropy = 0.0\nsamples = 1\nvalue = [0, 3]\nclass = yes", fillcolor="#399de5"] ;
285 -> 286 ;
287 [label="entropy = 0.0\nsamples = 2\nvalue = [2, 0]\nclass = no", fillcolor="#e58139"] ;
285 -> 287 ;
288 [label="duration <= 0.15\nentropy = 0.25\nsamples = 126\nvalue = [189, 8]\nclass = no", fillcolor="#e68641"] ;
6 -> 288 ;
289 [label="entropy = 0.0\nsamples = 90\nvalue = [150, 0]\nclass = no", fillcolor="#e58139"] ;
288 -> 289 ;
290 [label="duration <= 0.19\nentropy = 0.66\nsamples = 36\nvalue = [39, 8]\nclass = no", fillcolor="#ea9b62"] ;
288 -> 290 ;
291 [label="entropy = 0.0\nsamples = 1\nvalue = [0, 2]\nclass = yes", fillcolor="#399de5"] ;
290 -> 291 ;
292 [label="age <= -1.31\nentropy = 0.57\nsamples = 35\nvalue = [39, 6]\nclass = no", fillcolor="#e99457"] ;
290 -> 292 ;
293 [label="pdays <= 3.08\nentropy = 0.92\nsamples = 3\nvalue = [1, 2]\nclass = yes", fillcolor="#9ccef2"] ;
292 -> 293 ;
294 [label="entropy = 0.0\nsamples = 1\nvalue = [0, 1]\nclass = yes", fillcolor="#399de5"] ;
293 -> 294 ;
295 [label="marital_married <= -0.21\nentropy = 1.0\nsamples = 2\nvalue = [1, 1]\nclass = no", fillcolor="#ffffff"] ;
293 -> 295 ;
296 [label="entropy = 0.0\nsamples = 1\nvalue = [0, 1]\nclass = yes", fillcolor="#399de5"] ;
295 -> 296 ;
297 [label="entropy = 0.0\nsamples = 1\nvalue = [1, 0]\nclass = no", fillcolor="#e58139"] ;
295 -> 297 ;
298 [label="education_tertiary <= 0.45\nentropy = 0.45\nsamples = 32\nvalue = [38, 4]\nclass = no", fillcolor="#e88e4e"] ;
292 -> 298 ;
299 [label="month_mar <= 4.71\nentropy = 0.47\nsamples = 31\nvalue = [36, 4]\nclass = no", fillcolor="#e88f4f"] ;
298 -> 299 ;
300 [label="contact_cellular <= -0.31\nentropy = 0.39\nsamples = 30\nvalue = [36, 3]\nclass = no", fillcolor="#e78c49"] ;
299 -> 300 ;
301 [label="entropy = 0.0\nsamples = 1\nvalue = [1, 0]\nclass = no", fillcolor="#e58139"] ;
300 -> 301 ;
302 [label="month_apr <= 1.78\nentropy = 0.4\nsamples = 29\nvalue = [35, 3]\nclass = no", fillcolor="#e78c4a"] ;
300 -> 302 ;
303 [label="marital_married <= -0.21\nentropy = 0.47\nsamples = 22\nvalue = [27, 3]\nclass = no", fillcolor="#e88f4f"] ;
302 -> 303 ;
304 [label="campaign <= -0.41\nentropy = 0.76\nsamples = 8\nvalue = [7, 2]\nclass = no", fillcolor="#eca572"] ;
303 -> 304 ;
305 [label="balance <= -0.46\nentropy = 0.97\nsamples = 4\nvalue = [3, 2]\nclass = no", fillcolor="#f6d5bd"] ;
304 -> 305 ;
306 [label="entropy = 0.0\nsamples = 1\nvalue = [0, 1]\nclass = yes", fillcolor="#399de5"] ;
305 -> 306 ;
307 [label="duration <= 1.78\nentropy = 0.81\nsamples = 3\nvalue = [3, 1]\nclass = no", fillcolor="#eeab7b"] ;
305 -> 307 ;
308 [label="poutcome_success <= 2.62\nentropy = 1.0\nsamples = 2\nvalue = [1, 1]\nclass = no", fillcolor="#ffffff"] ;
307 -> 308 ;
309 [label="entropy = 0.0\nsamples = 1\nvalue = [1, 0]\nclass = no", fillcolor="#e58139"] ;
308 -> 309 ;
310 [label="entropy = 0.0\nsamples = 1\nvalue = [0, 1]\nclass = yes", fillcolor="#399de5"] ;
308 -> 310 ;
311 [label="entropy = 0.0\nsamples = 1\nvalue = [2, 0]\nclass = no", fillcolor="#e58139"] ;
307 -> 311 ;
312 [label="entropy = 0.0\nsamples = 4\nvalue = [4, 0]\nclass = no", fillcolor="#e58139"] ;
304 -> 312 ;
313 [label="loan_no <= -0.93\nentropy = 0.28\nsamples = 14\nvalue = [20, 1]\nclass = no", fillcolor="#e68743"] ;
303 -> 313 ;
314 [label="campaign <= -0.41\nentropy = 0.81\nsamples = 4\nvalue = [3, 1]\nclass = no", fillcolor="#eeab7b"] ;
313 -> 314 ;
315 [label="age <= -0.65\nentropy = 1.0\nsamples = 2\nvalue = [1, 1]\nclass = no", fillcolor="#ffffff"] ;
314 -> 315 ;
316 [label="entropy = 0.0\nsamples = 1\nvalue = [1, 0]\nclass = no", fillcolor="#e58139"] ;
315 -> 316 ;
317 [label="entropy = 0.0\nsamples = 1\nvalue = [0, 1]\nclass = yes", fillcolor="#399de5"] ;
315 -> 317 ;
318 [label="entropy = 0.0\nsamples = 2\nvalue = [2, 0]\nclass = no", fillcolor="#e58139"] ;
314 -> 318 ;
319 [label="entropy = 0.0\nsamples = 10\nvalue = [17, 0]\nclass = no", fillcolor="#e58139"] ;
313 -> 319 ;
320 [label="entropy = 0.0\nsamples = 7\nvalue = [8, 0]\nclass = no", fillcolor="#e58139"] ;
302 -> 320 ;
321 [label="entropy = 0.0\nsamples = 1\nvalue = [0, 1]\nclass = yes", fillcolor="#399de5"] ;
299 -> 321 ;
322 [label="entropy = 0.0\nsamples = 1\nvalue = [2, 0]\nclass = no", fillcolor="#e58139"] ;
298 -> 322 ;
323 [label="campaign <= 0.89\nentropy = 0.34\nsamples = 719\nvalue = [1107, 74]\nclass = no", fillcolor="#e78946"] ;
5 -> 323 ;
324 [label="day <= 1.65\nentropy = 0.35\nsamples = 681\nvalue = [1035, 74]\nclass = no", fillcolor="#e78a47"] ;
323 -> 324 ;
325 [label="campaign <= 0.24\nentropy = 0.36\nsamples = 661\nvalue = [1000, 74]\nclass = no", fillcolor="#e78a48"] ;
324 -> 325 ;
326 [label="poutcome_failure <= 1.26\nentropy = 0.38\nsamples = 583\nvalue = [876, 69]\nclass = no", fillcolor="#e78b49"] ;
325 -> 326 ;
327 [label="pdays <= 3.64\nentropy = 0.68\nsamples = 142\nvalue = [187, 41]\nclass = no", fillcolor="#eb9d64"] ;
326 -> 327 ;
328 [label="duration <= 0.81\nentropy = 0.57\nsamples = 135\nvalue = [185, 29]\nclass = no", fillcolor="#e99558"] ;
327 -> 328 ;
329 [label="job_admin. <= 1.22\nentropy = 0.31\nsamples = 118\nvalue = [172, 10]\nclass = no", fillcolor="#e78845"] ;
328 -> 329 ;
330 [label="day <= -0.4\nentropy = 0.24\nsamples = 99\nvalue = [148, 6]\nclass = no", fillcolor="#e68641"] ;
329 -> 330 ;
331 [label="job_unemployed <= 2.81\nentropy = 0.43\nsamples = 45\nvalue = [62, 6]\nclass = no", fillcolor="#e88d4c"] ;
330 -> 331 ;
332 [label="duration <= -0.58\nentropy = 0.38\nsamples = 44\nvalue = [62, 5]\nclass = no", fillcolor="#e78b49"] ;
331 -> 332 ;
333 [label="entropy = 0.0\nsamples = 11\nvalue = [18, 0]\nclass = no", fillcolor="#e58139"] ;
332 -> 333 ;
334 [label="education_unknown <= 2.34\nentropy = 0.48\nsamples = 33\nvalue = [44, 5]\nclass = no", fillcolor="#e88f50"] ;
332 -> 334 ;
335 [label="age <= 0.43\nentropy = 0.26\nsamples = 32\nvalue = [44, 2]\nclass = no", fillcolor="#e68742"] ;
334 -> 335 ;
336 [label="entropy = 0.0\nsamples = 14\nvalue = [21, 0]\nclass = no", fillcolor="#e58139"] ;
335 -> 336 ;
337 [label="age <= 0.62\nentropy = 0.4\nsamples = 18\nvalue = [23, 2]\nclass = no", fillcolor="#e78c4a"] ;
335 -> 337 ;
338 [label="pdays <= 0.91\nentropy = 0.97\nsamples = 5\nvalue = [3, 2]\nclass = no", fillcolor="#f6d5bd"] ;
337 -> 338 ;
339 [label="entropy = 0.0\nsamples = 1\nvalue = [0, 1]\nclass = yes", fillcolor="#399de5"] ;
338 -> 339 ;
340 [label="job_services <= 1.42\nentropy = 0.81\nsamples = 4\nvalue = [3, 1]\nclass = no", fillcolor="#eeab7b"] ;
338 -> 340 ;
341 [label="entropy = 0.0\nsamples = 3\nvalue = [3, 0]\nclass = no", fillcolor="#e58139"] ;
340 -> 341 ;
342 [label="entropy = 0.0\nsamples = 1\nvalue = [0, 1]\nclass = yes", fillcolor="#399de5"] ;
340 -> 342 ;
343 [label="entropy = 0.0\nsamples = 13\nvalue = [20, 0]\nclass = no", fillcolor="#e58139"] ;
337 -> 343 ;
344 [label="entropy = 0.0\nsamples = 1\nvalue = [0, 3]\nclass = yes", fillcolor="#399de5"] ;
334 -> 344 ;
345 [label="entropy = 0.0\nsamples = 1\nvalue = [0, 1]\nclass = yes", fillcolor="#399de5"] ;
331 -> 345 ;
346 [label="entropy = 0.0\nsamples = 54\nvalue = [86, 0]\nclass = no", fillcolor="#e58139"] ;
330 -> 346 ;
347 [label="month_apr <= 1.78\nentropy = 0.59\nsamples = 19\nvalue = [24, 4]\nclass = no", fillcolor="#e9965a"] ;
329 -> 347 ;
348 [label="loan_no <= -0.93\nentropy = 0.67\nsamples = 17\nvalue = [19, 4]\nclass = no", fillcolor="#ea9c63"] ;
347 -> 348 ;
349 [label="duration <= -0.55\nentropy = 1.0\nsamples = 3\nvalue = [2, 2]\nclass = no", fillcolor="#ffffff"] ;
348 -> 349 ;
350 [label="entropy = 0.0\nsamples = 1\nvalue = [2, 0]\nclass = no", fillcolor="#e58139"] ;
349 -> 350 ;
351 [label="entropy = 0.0\nsamples = 2\nvalue = [0, 2]\nclass = yes", fillcolor="#399de5"] ;
349 -> 351 ;
352 [label="pdays <= 1.65\nentropy = 0.49\nsamples = 14\nvalue = [17, 2]\nclass = no", fillcolor="#e89050"] ;
348 -> 352 ;
353 [label="month_aug <= 1.04\nentropy = 0.92\nsamples = 5\nvalue = [4, 2]\nclass = no", fillcolor="#f2c09c"] ;
352 -> 353 ;
354 [label="age <= 0.01\nentropy = 0.72\nsamples = 4\nvalue = [4, 1]\nclass = no", fillcolor="#eca06a"] ;
353 -> 354 ;
355 [label="entropy = 0.0\nsamples = 1\nvalue = [0, 1]\nclass = yes", fillcolor="#399de5"] ;
354 -> 355 ;
356 [label="entropy = 0.0\nsamples = 3\nvalue = [4, 0]\nclass = no", fillcolor="#e58139"] ;
354 -> 356 ;
357 [label="entropy = 0.0\nsamples = 1\nvalue = [0, 1]\nclass = yes", fillcolor="#399de5"] ;
353 -> 357 ;
358 [label="entropy = 0.0\nsamples = 9\nvalue = [13, 0]\nclass = no", fillcolor="#e58139"] ;
352 -> 358 ;
359 [label="entropy = 0.0\nsamples = 2\nvalue = [5, 0]\nclass = no", fillcolor="#e58139"] ;
347 -> 359 ;
360 [label="balance <= -0.31\nentropy = 0.97\nsamples = 17\nvalue = [13, 19]\nclass = yes", fillcolor="#c0e0f7"] ;
328 -> 360 ;
361 [label="month_mar <= 4.71\nentropy = 0.99\nsamples = 12\nvalue = [12, 9]\nclass = no", fillcolor="#f8e0ce"] ;
360 -> 361 ;
362 [label="previous <= 2.03\nentropy = 0.97\nsamples = 11\nvalue = [12, 8]\nclass = no", fillcolor="#f6d5bd"] ;
361 -> 362 ;
363 [label="day <= -0.76\nentropy = 0.87\nsamples = 8\nvalue = [12, 5]\nclass = no", fillcolor="#f0b58b"] ;
362 -> 363 ;
364 [label="entropy = 0.0\nsamples = 4\nvalue = [8, 0]\nclass = no", fillcolor="#e58139"] ;
363 -> 364 ;
365 [label="job_management <= 0.71\nentropy = 0.99\nsamples = 4\nvalue = [4, 5]\nclass = yes", fillcolor="#d7ebfa"] ;
363 -> 365 ;
366 [label="entropy = 0.0\nsamples = 2\nvalue = [2, 0]\nclass = no", fillcolor="#e58139"] ;
365 -> 366 ;
367 [label="loan_no <= -0.93\nentropy = 0.86\nsamples = 2\nvalue = [2, 5]\nclass = yes", fillcolor="#88c4ef"] ;
365 -> 367 ;
368 [label="entropy = 0.0\nsamples = 1\nvalue = [0, 5]\nclass = yes", fillcolor="#399de5"] ;
367 -> 368 ;
369 [label="entropy = 0.0\nsamples = 1\nvalue = [2, 0]\nclass = no", fillcolor="#e58139"] ;
367 -> 369 ;
370 [label="entropy = 0.0\nsamples = 3\nvalue = [0, 3]\nclass = yes", fillcolor="#399de5"] ;
362 -> 370 ;
371 [label="entropy = 0.0\nsamples = 1\nvalue = [0, 1]\nclass = yes", fillcolor="#399de5"] ;
361 -> 371 ;
372 [label="day <= 0.26\nentropy = 0.44\nsamples = 5\nvalue = [1, 10]\nclass = yes", fillcolor="#4da7e8"] ;
360 -> 372 ;
373 [label="entropy = 0.0\nsamples = 4\nvalue = [0, 10]\nclass = yes", fillcolor="#399de5"] ;
372 -> 373 ;
374 [label="entropy = 0.0\nsamples = 1\nvalue = [1, 0]\nclass = no", fillcolor="#e58139"] ;
372 -> 374 ;
375 [label="duration <= -0.92\nentropy = 0.59\nsamples = 7\nvalue = [2, 12]\nclass = yes", fillcolor="#5aade9"] ;
327 -> 375 ;
376 [label="entropy = 0.0\nsamples = 1\nvalue = [2, 0]\nclass = no", fillcolor="#e58139"] ;
375 -> 376 ;
377 [label="entropy = 0.0\nsamples = 6\nvalue = [0, 12]\nclass = yes", fillcolor="#399de5"] ;
375 -> 377 ;
378 [label="age <= -0.04\nentropy = 0.24\nsamples = 441\nvalue = [689, 28]\nclass = no", fillcolor="#e68641"] ;
326 -> 378 ;
379 [label="entropy = 0.0\nsamples = 54\nvalue = [95, 0]\nclass = no", fillcolor="#e58139"] ;
378 -> 379 ;
380 [label="duration <= 0.2\nentropy = 0.26\nsamples = 387\nvalue = [594, 28]\nclass = no", fillcolor="#e68742"] ;
378 -> 380 ;
381 [label="month_may <= 0.43\nentropy = 0.07\nsamples = 296\nvalue = [484, 4]\nclass = no", fillcolor="#e5823b"] ;
380 -> 381 ;
382 [label="job_blue-collar <= 0.7\nentropy = 0.12\nsamples = 149\nvalue = [237, 4]\nclass = no", fillcolor="#e5833c"] ;
381 -> 382 ;
383 [label="age <= 0.71\nentropy = 0.17\nsamples = 102\nvalue = [155, 4]\nclass = no", fillcolor="#e6843e"] ;
382 -> 383 ;
384 [label="entropy = 0.0\nsamples = 48\nvalue = [75, 0]\nclass = no", fillcolor="#e58139"] ;
383 -> 384 ;
385 [label="day <= -0.1\nentropy = 0.28\nsamples = 54\nvalue = [80, 4]\nclass = no", fillcolor="#e68743"] ;
383 -> 385 ;
386 [label="day <= -0.64\nentropy = 0.55\nsamples = 20\nvalue = [27, 4]\nclass = no", fillcolor="#e99456"] ;
385 -> 386 ;
387 [label="entropy = 0.0\nsamples = 17\nvalue = [25, 0]\nclass = no", fillcolor="#e58139"] ;
386 -> 387 ;
388 [label="day <= -0.46\nentropy = 0.92\nsamples = 3\nvalue = [2, 4]\nclass = yes", fillcolor="#9ccef2"] ;
386 -> 388 ;
389 [label="entropy = 0.0\nsamples = 1\nvalue = [0, 2]\nclass = yes", fillcolor="#399de5"] ;
388 -> 389 ;
390 [label="campaign <= -0.41\nentropy = 1.0\nsamples = 2\nvalue = [2, 2]\nclass = no", fillcolor="#ffffff"] ;
388 -> 390 ;
391 [label="entropy = 0.0\nsamples = 1\nvalue = [0, 2]\nclass = yes", fillcolor="#399de5"] ;
390 -> 391 ;
392 [label="entropy = 0.0\nsamples = 1\nvalue = [2, 0]\nclass = no", fillcolor="#e58139"] ;
390 -> 392 ;
393 [label="entropy = 0.0\nsamples = 34\nvalue = [53, 0]\nclass = no", fillcolor="#e58139"] ;
385 -> 393 ;
394 [label="entropy = 0.0\nsamples = 47\nvalue = [82, 0]\nclass = no", fillcolor="#e58139"] ;
382 -> 394 ;
395 [label="entropy = 0.0\nsamples = 147\nvalue = [247, 0]\nclass = no", fillcolor="#e58139"] ;
381 -> 395 ;
396 [label="previous <= 0.79\nentropy = 0.68\nsamples = 91\nvalue = [110, 24]\nclass = no", fillcolor="#eb9c64"] ;
380 -> 396 ;
397 [label="education_tertiary <= 0.45\nentropy = 0.8\nsamples = 55\nvalue = [59, 19]\nclass = no", fillcolor="#edaa79"] ;
396 -> 397 ;
398 [label="job_blue-collar <= 0.7\nentropy = 0.88\nsamples = 45\nvalue = [44, 19]\nclass = no", fillcolor="#f0b78e"] ;
397 -> 398 ;
399 [label="marital_divorced <= 1.2\nentropy = 0.81\nsamples = 33\nvalue = [33, 11]\nclass = no", fillcolor="#eeab7b"] ;
398 -> 399 ;
400 [label="job_self-employed <= 2.53\nentropy = 0.74\nsamples = 27\nvalue = [30, 8]\nclass = no", fillcolor="#eca36e"] ;
399 -> 400 ;
401 [label="age <= 0.81\nentropy = 0.76\nsamples = 26\nvalue = [28, 8]\nclass = no", fillcolor="#eca572"] ;
400 -> 401 ;
402 [label="job_technician <= 0.88\nentropy = 0.9\nsamples = 16\nvalue = [15, 7]\nclass = no", fillcolor="#f1bc95"] ;
401 -> 402 ;
403 [label="job_entrepreneur <= 2.61\nentropy = 0.98\nsamples = 12\nvalue = [10, 7]\nclass = no", fillcolor="#f7d9c4"] ;
402 -> 403 ;
404 [label="day <= -1.0\nentropy = 1.0\nsamples = 9\nvalue = [6, 7]\nclass = yes", fillcolor="#e3f1fb"] ;
403 -> 404 ;
405 [label="entropy = 0.0\nsamples = 4\nvalue = [0, 5]\nclass = yes", fillcolor="#399de5"] ;
404 -> 405 ;
406 [label="pdays <= 1.11\nentropy = 0.81\nsamples = 5\nvalue = [6, 2]\nclass = no", fillcolor="#eeab7b"] ;
404 -> 406 ;
407 [label="entropy = 0.0\nsamples = 1\nvalue = [0, 2]\nclass = yes", fillcolor="#399de5"] ;
406 -> 407 ;
408 [label="entropy = 0.0\nsamples = 4\nvalue = [6, 0]\nclass = no", fillcolor="#e58139"] ;
406 -> 408 ;
409 [label="entropy = 0.0\nsamples = 3\nvalue = [4, 0]\nclass = no", fillcolor="#e58139"] ;
403 -> 409 ;
410 [label="entropy = 0.0\nsamples = 4\nvalue = [5, 0]\nclass = no", fillcolor="#e58139"] ;
402 -> 410 ;
411 [label="job_services <= 1.42\nentropy = 0.37\nsamples = 10\nvalue = [13, 1]\nclass = no", fillcolor="#e78b48"] ;
401 -> 411 ;
412 [label="entropy = 0.0\nsamples = 9\nvalue = [13, 0]\nclass = no", fillcolor="#e58139"] ;
411 -> 412 ;
413 [label="entropy = 0.0\nsamples = 1\nvalue = [0, 1]\nclass = yes", fillcolor="#399de5"] ;
411 -> 413 ;
414 [label="entropy = 0.0\nsamples = 1\nvalue = [2, 0]\nclass = no", fillcolor="#e58139"] ;
400 -> 414 ;
415 [label="loan_no <= -0.93\nentropy = 1.0\nsamples = 6\nvalue = [3, 3]\nclass = no", fillcolor="#ffffff"] ;
399 -> 415 ;
416 [label="job_technician <= 0.88\nentropy = 0.81\nsamples = 4\nvalue = [1, 3]\nclass = yes", fillcolor="#7bbeee"] ;
415 -> 416 ;
417 [label="job_services <= 1.42\nentropy = 1.0\nsamples = 2\nvalue = [1, 1]\nclass = no", fillcolor="#ffffff"] ;
416 -> 417 ;
418 [label="entropy = 0.0\nsamples = 1\nvalue = [0, 1]\nclass = yes", fillcolor="#399de5"] ;
417 -> 418 ;
419 [label="entropy = 0.0\nsamples = 1\nvalue = [1, 0]\nclass = no", fillcolor="#e58139"] ;
417 -> 419 ;
420 [label="entropy = 0.0\nsamples = 2\nvalue = [0, 2]\nclass = yes", fillcolor="#399de5"] ;
416 -> 420 ;
421 [label="entropy = 0.0\nsamples = 2\nvalue = [2, 0]\nclass = no", fillcolor="#e58139"] ;
415 -> 421 ;
422 [label="campaign <= -0.08\nentropy = 0.98\nsamples = 12\nvalue = [11, 8]\nclass = no", fillcolor="#f8ddc9"] ;
398 -> 422 ;
423 [label="pdays <= 0.81\nentropy = 0.94\nsamples = 9\nvalue = [9, 5]\nclass = no", fillcolor="#f3c7a7"] ;
422 -> 423 ;
424 [label="entropy = 0.0\nsamples = 1\nvalue = [0, 3]\nclass = yes", fillcolor="#399de5"] ;
423 -> 424 ;
425 [label="month_may <= 0.43\nentropy = 0.68\nsamples = 8\nvalue = [9, 2]\nclass = no", fillcolor="#eb9d65"] ;
423 -> 425 ;
426 [label="entropy = 0.0\nsamples = 2\nvalue = [2, 0]\nclass = no", fillcolor="#e58139"] ;
425 -> 426 ;
427 [label="education_secondary <= -0.03\nentropy = 0.76\nsamples = 6\nvalue = [7, 2]\nclass = no", fillcolor="#eca572"] ;
425 -> 427 ;
428 [label="campaign <= -0.41\nentropy = 0.81\nsamples = 3\nvalue = [3, 1]\nclass = no", fillcolor="#eeab7b"] ;
427 -> 428 ;
429 [label="age <= 0.71\nentropy = 1.0\nsamples = 2\nvalue = [1, 1]\nclass = no", fillcolor="#ffffff"] ;
428 -> 429 ;
430 [label="entropy = 0.0\nsamples = 1\nvalue = [0, 1]\nclass = yes", fillcolor="#399de5"] ;
429 -> 430 ;
431 [label="entropy = 0.0\nsamples = 1\nvalue = [1, 0]\nclass = no", fillcolor="#e58139"] ;
429 -> 431 ;
432 [label="entropy = 0.0\nsamples = 1\nvalue = [2, 0]\nclass = no", fillcolor="#e58139"] ;
428 -> 432 ;
433 [label="balance <= -0.28\nentropy = 0.72\nsamples = 3\nvalue = [4, 1]\nclass = no", fillcolor="#eca06a"] ;
427 -> 433 ;
434 [label="entropy = 0.0\nsamples = 2\nvalue = [4, 0]\nclass = no", fillcolor="#e58139"] ;
433 -> 434 ;
435 [label="entropy = 0.0\nsamples = 1\nvalue = [0, 1]\nclass = yes", fillcolor="#399de5"] ;
433 -> 435 ;
436 [label="pdays <= 2.29\nentropy = 0.97\nsamples = 3\nvalue = [2, 3]\nclass = yes", fillcolor="#bddef6"] ;
422 -> 436 ;
437 [label="entropy = 0.0\nsamples = 1\nvalue = [0, 3]\nclass = yes", fillcolor="#399de5"] ;
436 -> 437 ;
438 [label="entropy = 0.0\nsamples = 2\nvalue = [2, 0]\nclass = no", fillcolor="#e58139"] ;
436 -> 438 ;
439 [label="entropy = 0.0\nsamples = 10\nvalue = [15, 0]\nclass = no", fillcolor="#e58139"] ;
397 -> 439 ;
440 [label="education_tertiary <= 0.45\nentropy = 0.43\nsamples = 36\nvalue = [51, 5]\nclass = no", fillcolor="#e88d4c"] ;
396 -> 440 ;
441 [label="previous <= 10.92\nentropy = 0.34\nsamples = 29\nvalue = [45, 3]\nclass = no", fillcolor="#e78946"] ;
440 -> 441 ;
442 [label="balance <= -0.44\nentropy = 0.25\nsamples = 28\nvalue = [45, 2]\nclass = no", fillcolor="#e68742"] ;
441 -> 442 ;
443 [label="education_secondary <= -0.03\nentropy = 0.47\nsamples = 12\nvalue = [18, 2]\nclass = no", fillcolor="#e88f4f"] ;
442 -> 443 ;
444 [label="age <= 0.48\nentropy = 0.54\nsamples = 3\nvalue = [7, 1]\nclass = no", fillcolor="#e99355"] ;
443 -> 444 ;
445 [label="entropy = 0.0\nsamples = 1\nvalue = [5, 0]\nclass = no", fillcolor="#e58139"] ;
444 -> 445 ;
446 [label="duration <= 1.33\nentropy = 0.92\nsamples = 2\nvalue = [2, 1]\nclass = no", fillcolor="#f2c09c"] ;
444 -> 446 ;
447 [label="entropy = 0.0\nsamples = 1\nvalue = [0, 1]\nclass = yes", fillcolor="#399de5"] ;
446 -> 447 ;
448 [label="entropy = 0.0\nsamples = 1\nvalue = [2, 0]\nclass = no", fillcolor="#e58139"] ;
446 -> 448 ;
449 [label="job_blue-collar <= 0.7\nentropy = 0.41\nsamples = 9\nvalue = [11, 1]\nclass = no", fillcolor="#e78c4b"] ;
443 -> 449 ;
450 [label="entropy = 0.0\nsamples = 5\nvalue = [6, 0]\nclass = no", fillcolor="#e58139"] ;
449 -> 450 ;
451 [label="balance <= -0.48\nentropy = 0.65\nsamples = 4\nvalue = [5, 1]\nclass = no", fillcolor="#ea9a61"] ;
449 -> 451 ;
452 [label="entropy = 0.0\nsamples = 3\nvalue = [5, 0]\nclass = no", fillcolor="#e58139"] ;
451 -> 452 ;
453 [label="entropy = 0.0\nsamples = 1\nvalue = [0, 1]\nclass = yes", fillcolor="#399de5"] ;
451 -> 453 ;
454 [label="entropy = 0.0\nsamples = 16\nvalue = [27, 0]\nclass = no", fillcolor="#e58139"] ;
442 -> 454 ;
455 [label="entropy = 0.0\nsamples = 1\nvalue = [0, 1]\nclass = yes", fillcolor="#399de5"] ;
441 -> 455 ;
456 [label="month_feb <= 1.89\nentropy = 0.81\nsamples = 7\nvalue = [6, 2]\nclass = no", fillcolor="#eeab7b"] ;
440 -> 456 ;
457 [label="previous <= 2.45\nentropy = 0.86\nsamples = 6\nvalue = [5, 2]\nclass = no", fillcolor="#efb388"] ;
456 -> 457 ;
458 [label="marital_married <= -0.21\nentropy = 0.97\nsamples = 5\nvalue = [3, 2]\nclass = no", fillcolor="#f6d5bd"] ;
457 -> 458 ;
459 [label="entropy = 0.0\nsamples = 1\nvalue = [0, 1]\nclass = yes", fillcolor="#399de5"] ;
458 -> 459 ;
460 [label="campaign <= -0.41\nentropy = 0.81\nsamples = 4\nvalue = [3, 1]\nclass = no", fillcolor="#eeab7b"] ;
458 -> 460 ;
461 [label="entropy = 0.0\nsamples = 1\nvalue = [0, 1]\nclass = yes", fillcolor="#399de5"] ;
460 -> 461 ;
462 [label="entropy = 0.0\nsamples = 3\nvalue = [3, 0]\nclass = no", fillcolor="#e58139"] ;
460 -> 462 ;
463 [label="entropy = 0.0\nsamples = 1\nvalue = [2, 0]\nclass = no", fillcolor="#e58139"] ;
457 -> 463 ;
464 [label="entropy = 0.0\nsamples = 1\nvalue = [1, 0]\nclass = no", fillcolor="#e58139"] ;
456 -> 464 ;
465 [label="month_feb <= 1.89\nentropy = 0.24\nsamples = 78\nvalue = [124, 5]\nclass = no", fillcolor="#e68641"] ;
325 -> 465 ;
466 [label="loan_no <= -0.93\nentropy = 0.3\nsamples = 60\nvalue = [91, 5]\nclass = no", fillcolor="#e68844"] ;
465 -> 466 ;
467 [label="entropy = 0.0\nsamples = 11\nvalue = [15, 0]\nclass = no", fillcolor="#e58139"] ;
466 -> 467 ;
468 [label="duration <= 0.59\nentropy = 0.33\nsamples = 49\nvalue = [76, 5]\nclass = no", fillcolor="#e78946"] ;
466 -> 468 ;
469 [label="entropy = 0.0\nsamples = 44\nvalue = [74, 0]\nclass = no", fillcolor="#e58139"] ;
468 -> 469 ;
470 [label="month_may <= 0.43\nentropy = 0.86\nsamples = 5\nvalue = [2, 5]\nclass = yes", fillcolor="#88c4ef"] ;
468 -> 470 ;
471 [label="entropy = 0.0\nsamples = 2\nvalue = [2, 0]\nclass = no", fillcolor="#e58139"] ;
470 -> 471 ;
472 [label="entropy = 0.0\nsamples = 3\nvalue = [0, 5]\nclass = yes", fillcolor="#399de5"] ;
470 -> 472 ;
473 [label="entropy = 0.0\nsamples = 18\nvalue = [33, 0]\nclass = no", fillcolor="#e58139"] ;
465 -> 473 ;
474 [label="entropy = 0.0\nsamples = 20\nvalue = [35, 0]\nclass = no", fillcolor="#e58139"] ;
324 -> 474 ;
475 [label="entropy = 0.0\nsamples = 38\nvalue = [72, 0]\nclass = no", fillcolor="#e58139"] ;
323 -> 475 ;
476 [label="pdays <= 1.45\nentropy = 1.0\nsamples = 25\nvalue = [21, 20]\nclass = no", fillcolor="#fef9f6"] ;
4 -> 476 ;
477 [label="job_management <= 0.71\nentropy = 0.76\nsamples = 12\nvalue = [5, 18]\nclass = yes", fillcolor="#70b8ec"] ;
476 -> 477 ;
478 [label="duration <= -0.6\nentropy = 0.87\nsamples = 8\nvalue = [5, 12]\nclass = yes", fillcolor="#8bc6f0"] ;
477 -> 478 ;
479 [label="entropy = 0.0\nsamples = 2\nvalue = [4, 0]\nclass = no", fillcolor="#e58139"] ;
478 -> 479 ;
480 [label="job_technician <= 0.88\nentropy = 0.39\nsamples = 6\nvalue = [1, 12]\nclass = yes", fillcolor="#49a5e7"] ;
478 -> 480 ;
481 [label="duration <= -0.06\nentropy = 0.44\nsamples = 5\nvalue = [1, 10]\nclass = yes", fillcolor="#4da7e8"] ;
480 -> 481 ;
482 [label="job_blue-collar <= 0.7\nentropy = 0.72\nsamples = 3\nvalue = [1, 4]\nclass = yes", fillcolor="#6ab6ec"] ;
481 -> 482 ;
483 [label="entropy = 0.0\nsamples = 1\nvalue = [1, 0]\nclass = no", fillcolor="#e58139"] ;
482 -> 483 ;
484 [label="entropy = 0.0\nsamples = 2\nvalue = [0, 4]\nclass = yes", fillcolor="#399de5"] ;
482 -> 484 ;
485 [label="entropy = 0.0\nsamples = 2\nvalue = [0, 6]\nclass = yes", fillcolor="#399de5"] ;
481 -> 485 ;
486 [label="entropy = 0.0\nsamples = 1\nvalue = [0, 2]\nclass = yes", fillcolor="#399de5"] ;
480 -> 486 ;
487 [label="entropy = 0.0\nsamples = 4\nvalue = [0, 6]\nclass = yes", fillcolor="#399de5"] ;
477 -> 487 ;
488 [label="contact_cellular <= -0.31\nentropy = 0.5\nsamples = 13\nvalue = [16, 2]\nclass = no", fillcolor="#e89152"] ;
476 -> 488 ;
489 [label="entropy = 0.0\nsamples = 5\nvalue = [8, 0]\nclass = no", fillcolor="#e58139"] ;
488 -> 489 ;
490 [label="education_secondary <= -0.03\nentropy = 0.72\nsamples = 8\nvalue = [8, 2]\nclass = no", fillcolor="#eca06a"] ;
488 -> 490 ;
491 [label="poutcome_failure <= 1.26\nentropy = 0.92\nsamples = 6\nvalue = [4, 2]\nclass = no", fillcolor="#f2c09c"] ;
490 -> 491 ;
492 [label="day <= -1.06\nentropy = 0.92\nsamples = 3\nvalue = [2, 1]\nclass = no", fillcolor="#f2c09c"] ;
491 -> 492 ;
493 [label="entropy = 0.0\nsamples = 1\nvalue = [1, 0]\nclass = no", fillcolor="#e58139"] ;
492 -> 493 ;
494 [label="campaign <= -0.24\nentropy = 1.0\nsamples = 2\nvalue = [1, 1]\nclass = no", fillcolor="#ffffff"] ;
492 -> 494 ;
495 [label="entropy = 0.0\nsamples = 1\nvalue = [0, 1]\nclass = yes", fillcolor="#399de5"] ;
494 -> 495 ;
496 [label="entropy = 0.0\nsamples = 1\nvalue = [1, 0]\nclass = no", fillcolor="#e58139"] ;
494 -> 496 ;
497 [label="previous <= 0.38\nentropy = 0.92\nsamples = 3\nvalue = [2, 1]\nclass = no", fillcolor="#f2c09c"] ;
491 -> 497 ;
498 [label="entropy = 0.0\nsamples = 2\nvalue = [2, 0]\nclass = no", fillcolor="#e58139"] ;
497 -> 498 ;
499 [label="entropy = 0.0\nsamples = 1\nvalue = [0, 1]\nclass = yes", fillcolor="#399de5"] ;
497 -> 499 ;
500 [label="entropy = 0.0\nsamples = 2\nvalue = [4, 0]\nclass = no", fillcolor="#e58139"] ;
490 -> 500 ;
501 [label="month_nov <= 1.44\nentropy = 0.6\nsamples = 856\nvalue = [1190, 203]\nclass = no", fillcolor="#e9965b"] ;
3 -> 501 ;
502 [label="poutcome_failure <= 1.26\nentropy = 0.65\nsamples = 649\nvalue = [880, 175]\nclass = no", fillcolor="#ea9a60"] ;
501 -> 502 ;
503 [label="duration <= -0.47\nentropy = 0.86\nsamples = 230\nvalue = [275, 109]\nclass = no", fillcolor="#efb387"] ;
502 -> 503 ;
504 [label="job_blue-collar <= 0.7\nentropy = 0.17\nsamples = 68\nvalue = [115, 3]\nclass = no", fillcolor="#e6843e"] ;
503 -> 504 ;
505 [label="contact_cellular <= -0.31\nentropy = 0.23\nsamples = 52\nvalue = [79, 3]\nclass = no", fillcolor="#e68641"] ;
504 -> 505 ;
506 [label="entropy = 0.0\nsamples = 9\nvalue = [14, 0]\nclass = no", fillcolor="#e58139"] ;
505 -> 506 ;
507 [label="month_aug <= 1.04\nentropy = 0.26\nsamples = 43\nvalue = [65, 3]\nclass = no", fillcolor="#e68742"] ;
505 -> 507 ;
508 [label="pdays <= 0.68\nentropy = 0.28\nsamples = 40\nvalue = [58, 3]\nclass = no", fillcolor="#e68843"] ;
507 -> 508 ;
509 [label="month_feb <= 1.89\nentropy = 0.88\nsamples = 9\nvalue = [7, 3]\nclass = no", fillcolor="#f0b78e"] ;
508 -> 509 ;
510 [label="previous <= 3.27\nentropy = 0.65\nsamples = 6\nvalue = [5, 1]\nclass = no", fillcolor="#ea9a61"] ;
509 -> 510 ;
511 [label="entropy = 0.0\nsamples = 5\nvalue = [5, 0]\nclass = no", fillcolor="#e58139"] ;
510 -> 511 ;
512 [label="entropy = 0.0\nsamples = 1\nvalue = [0, 1]\nclass = yes", fillcolor="#399de5"] ;
510 -> 512 ;
513 [label="poutcome_success <= 2.62\nentropy = 1.0\nsamples = 3\nvalue = [2, 2]\nclass = no", fillcolor="#ffffff"] ;
509 -> 513 ;
514 [label="entropy = 0.0\nsamples = 2\nvalue = [2, 0]\nclass = no", fillcolor="#e58139"] ;
513 -> 514 ;
515 [label="entropy = 0.0\nsamples = 1\nvalue = [0, 2]\nclass = yes", fillcolor="#399de5"] ;
513 -> 515 ;
516 [label="entropy = 0.0\nsamples = 31\nvalue = [51, 0]\nclass = no", fillcolor="#e58139"] ;
508 -> 516 ;
517 [label="entropy = 0.0\nsamples = 3\nvalue = [7, 0]\nclass = no", fillcolor="#e58139"] ;
507 -> 517 ;
518 [label="entropy = 0.0\nsamples = 16\nvalue = [36, 0]\nclass = no", fillcolor="#e58139"] ;
504 -> 518 ;
519 [label="job_services <= 1.42\nentropy = 0.97\nsamples = 162\nvalue = [160, 106]\nclass = no", fillcolor="#f6d4bc"] ;
503 -> 519 ;
520 [label="pdays <= 2.08\nentropy = 0.98\nsamples = 143\nvalue = [138, 103]\nclass = no", fillcolor="#f8dfcd"] ;
519 -> 520 ;
521 [label="month_jul <= 0.97\nentropy = 0.97\nsamples = 82\nvalue = [52, 77]\nclass = yes", fillcolor="#bfdff7"] ;
520 -> 521 ;
522 [label="age <= 1.47\nentropy = 0.99\nsamples = 75\nvalue = [49, 65]\nclass = yes", fillcolor="#cee7f9"] ;
521 -> 522 ;
523 [label="duration <= -0.0\nentropy = 0.99\nsamples = 71\nvalue = [49, 60]\nclass = yes", fillcolor="#dbedfa"] ;
522 -> 523 ;
524 [label="duration <= -0.02\nentropy = 0.97\nsamples = 28\nvalue = [25, 17]\nclass = no", fillcolor="#f7d7c0"] ;
523 -> 524 ;
525 [label="month_feb <= 1.89\nentropy = 0.99\nsamples = 26\nvalue = [21, 17]\nclass = no", fillcolor="#fae7d9"] ;
524 -> 525 ;
526 [label="balance <= -0.09\nentropy = 1.0\nsamples = 23\nvalue = [18, 16]\nclass = no", fillcolor="#fcf1e9"] ;
525 -> 526 ;
527 [label="entropy = 0.0\nsamples = 2\nvalue = [0, 4]\nclass = yes", fillcolor="#399de5"] ;
526 -> 527 ;
528 [label="month_apr <= 1.78\nentropy = 0.97\nsamples = 21\nvalue = [18, 12]\nclass = no", fillcolor="#f6d5bd"] ;
526 -> 528 ;
529 [label="day <= 0.92\nentropy = 0.99\nsamples = 17\nvalue = [14, 11]\nclass = no", fillcolor="#f9e4d5"] ;
528 -> 529 ;
530 [label="balance <= 0.08\nentropy = 0.98\nsamples = 13\nvalue = [8, 11]\nclass = yes", fillcolor="#c9e4f8"] ;
529 -> 530 ;
531 [label="entropy = 0.0\nsamples = 3\nvalue = [4, 0]\nclass = no", fillcolor="#e58139"] ;
530 -> 531 ;
532 [label="age <= 0.81\nentropy = 0.84\nsamples = 10\nvalue = [4, 11]\nclass = yes", fillcolor="#81c1ee"] ;
530 -> 532 ;
533 [label="month_aug <= 1.04\nentropy = 0.92\nsamples = 9\nvalue = [4, 8]\nclass = yes", fillcolor="#9ccef2"] ;
532 -> 533 ;
534 [label="campaign <= 0.24\nentropy = 1.0\nsamples = 7\nvalue = [4, 4]\nclass = no", fillcolor="#ffffff"] ;
533 -> 534 ;
535 [label="job_admin. <= 1.22\nentropy = 0.99\nsamples = 6\nvalue = [4, 3]\nclass = no", fillcolor="#f8e0ce"] ;
534 -> 535 ;
536 [label="marital_married <= -0.21\nentropy = 0.92\nsamples = 5\nvalue = [4, 2]\nclass = no", fillcolor="#f2c09c"] ;
535 -> 536 ;
537 [label="day <= 0.2\nentropy = 0.72\nsamples = 4\nvalue = [4, 1]\nclass = no", fillcolor="#eca06a"] ;
536 -> 537 ;
538 [label="entropy = 0.0\nsamples = 3\nvalue = [4, 0]\nclass = no", fillcolor="#e58139"] ;
537 -> 538 ;
539 [label="entropy = 0.0\nsamples = 1\nvalue = [0, 1]\nclass = yes", fillcolor="#399de5"] ;
537 -> 539 ;
540 [label="entropy = 0.0\nsamples = 1\nvalue = [0, 1]\nclass = yes", fillcolor="#399de5"] ;
536 -> 540 ;
541 [label="entropy = 0.0\nsamples = 1\nvalue = [0, 1]\nclass = yes", fillcolor="#399de5"] ;
535 -> 541 ;
542 [label="entropy = 0.0\nsamples = 1\nvalue = [0, 1]\nclass = yes", fillcolor="#399de5"] ;
534 -> 542 ;
543 [label="entropy = 0.0\nsamples = 2\nvalue = [0, 4]\nclass = yes", fillcolor="#399de5"] ;
533 -> 543 ;
544 [label="entropy = 0.0\nsamples = 1\nvalue = [0, 3]\nclass = yes", fillcolor="#399de5"] ;
532 -> 544 ;
545 [label="entropy = 0.0\nsamples = 4\nvalue = [6, 0]\nclass = no", fillcolor="#e58139"] ;
529 -> 545 ;
546 [label="duration <= -0.07\nentropy = 0.72\nsamples = 4\nvalue = [4, 1]\nclass = no", fillcolor="#eca06a"] ;
528 -> 546 ;
547 [label="entropy = 0.0\nsamples = 3\nvalue = [4, 0]\nclass = no", fillcolor="#e58139"] ;
546 -> 547 ;
548 [label="entropy = 0.0\nsamples = 1\nvalue = [0, 1]\nclass = yes", fillcolor="#399de5"] ;
546 -> 548 ;
549 [label="age <= -0.23\nentropy = 0.81\nsamples = 3\nvalue = [3, 1]\nclass = no", fillcolor="#eeab7b"] ;
525 -> 549 ;
550 [label="entropy = 0.0\nsamples = 1\nvalue = [0, 1]\nclass = yes", fillcolor="#399de5"] ;
549 -> 550 ;
551 [label="entropy = 0.0\nsamples = 2\nvalue = [3, 0]\nclass = no", fillcolor="#e58139"] ;
549 -> 551 ;
552 [label="entropy = 0.0\nsamples = 2\nvalue = [4, 0]\nclass = no", fillcolor="#e58139"] ;
524 -> 552 ;
553 [label="month_aug <= 1.04\nentropy = 0.94\nsamples = 43\nvalue = [24, 43]\nclass = yes", fillcolor="#a8d4f4"] ;
523 -> 553 ;
554 [label="month_mar <= 4.71\nentropy = 0.96\nsamples = 38\nvalue = [23, 37]\nclass = yes", fillcolor="#b4daf5"] ;
553 -> 554 ;
555 [label="campaign <= 0.56\nentropy = 0.97\nsamples = 36\nvalue = [23, 34]\nclass = yes", fillcolor="#bfdff7"] ;
554 -> 555 ;
556 [label="balance <= 0.13\nentropy = 0.92\nsamples = 34\nvalue = [17, 34]\nclass = yes", fillcolor="#9ccef2"] ;
555 -> 556 ;
557 [label="month_sep <= 4.4\nentropy = 0.56\nsamples = 17\nvalue = [3, 20]\nclass = yes", fillcolor="#57ace9"] ;
556 -> 557 ;
558 [label="job_management <= 0.71\nentropy = 0.45\nsamples = 15\nvalue = [2, 19]\nclass = yes", fillcolor="#4ea7e8"] ;
557 -> 558 ;
559 [label="duration <= 0.11\nentropy = 0.29\nsamples = 14\nvalue = [1, 19]\nclass = yes", fillcolor="#43a2e6"] ;
558 -> 559 ;
560 [label="entropy = 0.0\nsamples = 1\nvalue = [1, 0]\nclass = no", fillcolor="#e58139"] ;
559 -> 560 ;
561 [label="entropy = 0.0\nsamples = 13\nvalue = [0, 19]\nclass = yes", fillcolor="#399de5"] ;
559 -> 561 ;
562 [label="entropy = 0.0\nsamples = 1\nvalue = [1, 0]\nclass = no", fillcolor="#e58139"] ;
558 -> 562 ;
563 [label="campaign <= -0.41\nentropy = 1.0\nsamples = 2\nvalue = [1, 1]\nclass = no", fillcolor="#ffffff"] ;
557 -> 563 ;
564 [label="entropy = 0.0\nsamples = 1\nvalue = [0, 1]\nclass = yes", fillcolor="#399de5"] ;
563 -> 564 ;
565 [label="entropy = 0.0\nsamples = 1\nvalue = [1, 0]\nclass = no", fillcolor="#e58139"] ;
563 -> 565 ;
566 [label="education_secondary <= -0.03\nentropy = 1.0\nsamples = 17\nvalue = [14, 14]\nclass = no", fillcolor="#ffffff"] ;
556 -> 566 ;
567 [label="age <= -0.23\nentropy = 0.92\nsamples = 11\nvalue = [12, 6]\nclass = no", fillcolor="#f2c09c"] ;
566 -> 567 ;
568 [label="job_technician <= 0.88\nentropy = 0.92\nsamples = 6\nvalue = [3, 6]\nclass = yes", fillcolor="#9ccef2"] ;
567 -> 568 ;
569 [label="previous <= 5.76\nentropy = 0.81\nsamples = 5\nvalue = [2, 6]\nclass = yes", fillcolor="#7bbeee"] ;
568 -> 569 ;
570 [label="duration <= 0.59\nentropy = 0.59\nsamples = 4\nvalue = [1, 6]\nclass = yes", fillcolor="#5aade9"] ;
569 -> 570 ;
571 [label="month_feb <= 1.89\nentropy = 0.92\nsamples = 2\nvalue = [1, 2]\nclass = yes", fillcolor="#9ccef2"] ;
570 -> 571 ;
572 [label="entropy = 0.0\nsamples = 1\nvalue = [1, 0]\nclass = no", fillcolor="#e58139"] ;
571 -> 572 ;
573 [label="entropy = 0.0\nsamples = 1\nvalue = [0, 2]\nclass = yes", fillcolor="#399de5"] ;
571 -> 573 ;
574 [label="entropy = 0.0\nsamples = 2\nvalue = [0, 4]\nclass = yes", fillcolor="#399de5"] ;
570 -> 574 ;
575 [label="entropy = 0.0\nsamples = 1\nvalue = [1, 0]\nclass = no", fillcolor="#e58139"] ;
569 -> 575 ;
576 [label="entropy = 0.0\nsamples = 1\nvalue = [1, 0]\nclass = no", fillcolor="#e58139"] ;
568 -> 576 ;
577 [label="entropy = 0.0\nsamples = 5\nvalue = [9, 0]\nclass = no", fillcolor="#e58139"] ;
567 -> 577 ;
578 [label="campaign <= -0.24\nentropy = 0.72\nsamples = 6\nvalue = [2, 8]\nclass = yes", fillcolor="#6ab6ec"] ;
566 -> 578 ;
579 [label="job_blue-collar <= 0.7\nentropy = 0.54\nsamples = 4\nvalue = [1, 7]\nclass = yes", fillcolor="#55abe9"] ;
578 -> 579 ;
580 [label="entropy = 0.0\nsamples = 3\nvalue = [0, 7]\nclass = yes", fillcolor="#399de5"] ;
579 -> 580 ;
581 [label="entropy = 0.0\nsamples = 1\nvalue = [1, 0]\nclass = no", fillcolor="#e58139"] ;
579 -> 581 ;
582 [label="marital_married <= -0.21\nentropy = 1.0\nsamples = 2\nvalue = [1, 1]\nclass = no", fillcolor="#ffffff"] ;
578 -> 582 ;
583 [label="entropy = 0.0\nsamples = 1\nvalue = [0, 1]\nclass = yes", fillcolor="#399de5"] ;
582 -> 583 ;
584 [label="entropy = 0.0\nsamples = 1\nvalue = [1, 0]\nclass = no", fillcolor="#e58139"] ;
582 -> 584 ;
585 [label="entropy = 0.0\nsamples = 2\nvalue = [6, 0]\nclass = no", fillcolor="#e58139"] ;
555 -> 585 ;
586 [label="entropy = 0.0\nsamples = 2\nvalue = [0, 3]\nclass = yes", fillcolor="#399de5"] ;
554 -> 586 ;
587 [label="poutcome_success <= 2.62\nentropy = 0.59\nsamples = 5\nvalue = [1, 6]\nclass = yes", fillcolor="#5aade9"] ;
553 -> 587 ;
588 [label="entropy = 0.0\nsamples = 2\nvalue = [0, 2]\nclass = yes", fillcolor="#399de5"] ;
587 -> 588 ;
589 [label="day <= 0.56\nentropy = 0.72\nsamples = 3\nvalue = [1, 4]\nclass = yes", fillcolor="#6ab6ec"] ;
587 -> 589 ;
590 [label="entropy = 0.0\nsamples = 2\nvalue = [0, 4]\nclass = yes", fillcolor="#399de5"] ;
589 -> 590 ;
591 [label="entropy = 0.0\nsamples = 1\nvalue = [1, 0]\nclass = no", fillcolor="#e58139"] ;
589 -> 591 ;
592 [label="entropy = 0.0\nsamples = 4\nvalue = [0, 5]\nclass = yes", fillcolor="#399de5"] ;
522 -> 592 ;
593 [label="poutcome_success <= 2.62\nentropy = 0.72\nsamples = 7\nvalue = [3, 12]\nclass = yes", fillcolor="#6ab6ec"] ;
521 -> 593 ;
594 [label="day <= -0.04\nentropy = 0.81\nsamples = 2\nvalue = [3, 1]\nclass = no", fillcolor="#eeab7b"] ;
593 -> 594 ;
595 [label="entropy = 0.0\nsamples = 1\nvalue = [3, 0]\nclass = no", fillcolor="#e58139"] ;
594 -> 595 ;
596 [label="entropy = 0.0\nsamples = 1\nvalue = [0, 1]\nclass = yes", fillcolor="#399de5"] ;
594 -> 596 ;
597 [label="entropy = 0.0\nsamples = 5\nvalue = [0, 11]\nclass = yes", fillcolor="#399de5"] ;
593 -> 597 ;
598 [label="balance <= 0.64\nentropy = 0.78\nsamples = 61\nvalue = [86, 26]\nclass = no", fillcolor="#eda775"] ;
520 -> 598 ;
599 [label="duration <= 4.24\nentropy = 0.67\nsamples = 50\nvalue = [76, 16]\nclass = no", fillcolor="#ea9c63"] ;
598 -> 599 ;
600 [label="pdays <= 2.97\nentropy = 0.55\nsamples = 48\nvalue = [76, 11]\nclass = no", fillcolor="#e99356"] ;
599 -> 600 ;
601 [label="month_sep <= 4.4\nentropy = 0.29\nsamples = 23\nvalue = [37, 2]\nclass = no", fillcolor="#e68844"] ;
600 -> 601 ;
602 [label="loan_no <= -0.93\nentropy = 0.18\nsamples = 22\nvalue = [37, 1]\nclass = no", fillcolor="#e6843e"] ;
601 -> 602 ;
603 [label="entropy = 0.0\nsamples = 3\nvalue = [6, 0]\nclass = no", fillcolor="#e58139"] ;
602 -> 603 ;
604 [label="month_apr <= 1.78\nentropy = 0.2\nsamples = 19\nvalue = [31, 1]\nclass = no", fillcolor="#e6853f"] ;
602 -> 604 ;
605 [label="entropy = 0.0\nsamples = 10\nvalue = [17, 0]\nclass = no", fillcolor="#e58139"] ;
604 -> 605 ;
606 [label="duration <= 0.04\nentropy = 0.35\nsamples = 9\nvalue = [14, 1]\nclass = no", fillcolor="#e78a47"] ;
604 -> 606 ;
607 [label="balance <= 0.19\nentropy = 0.92\nsamples = 2\nvalue = [2, 1]\nclass = no", fillcolor="#f2c09c"] ;
606 -> 607 ;
608 [label="entropy = 0.0\nsamples = 1\nvalue = [2, 0]\nclass = no", fillcolor="#e58139"] ;
607 -> 608 ;
609 [label="entropy = 0.0\nsamples = 1\nvalue = [0, 1]\nclass = yes", fillcolor="#399de5"] ;
607 -> 609 ;
610 [label="entropy = 0.0\nsamples = 7\nvalue = [12, 0]\nclass = no", fillcolor="#e58139"] ;
606 -> 610 ;
611 [label="entropy = 0.0\nsamples = 1\nvalue = [0, 1]\nclass = yes", fillcolor="#399de5"] ;
601 -> 611 ;
612 [label="age <= 0.34\nentropy = 0.7\nsamples = 25\nvalue = [39, 9]\nclass = no", fillcolor="#eb9e67"] ;
600 -> 612 ;
613 [label="day <= -1.18\nentropy = 0.55\nsamples = 21\nvalue = [34, 5]\nclass = no", fillcolor="#e99456"] ;
612 -> 613 ;
614 [label="entropy = 0.0\nsamples = 2\nvalue = [0, 3]\nclass = yes", fillcolor="#399de5"] ;
613 -> 614 ;
615 [label="job_management <= 0.71\nentropy = 0.31\nsamples = 19\nvalue = [34, 2]\nclass = no", fillcolor="#e78845"] ;
613 -> 615 ;
616 [label="entropy = 0.0\nsamples = 15\nvalue = [27, 0]\nclass = no", fillcolor="#e58139"] ;
615 -> 616 ;
617 [label="contact_cellular <= -0.31\nentropy = 0.76\nsamples = 4\nvalue = [7, 2]\nclass = no", fillcolor="#eca572"] ;
615 -> 617 ;
618 [label="entropy = 0.0\nsamples = 1\nvalue = [2, 0]\nclass = no", fillcolor="#e58139"] ;
617 -> 618 ;
619 [label="campaign <= -0.24\nentropy = 0.86\nsamples = 3\nvalue = [5, 2]\nclass = no", fillcolor="#efb388"] ;
617 -> 619 ;
620 [label="entropy = 0.0\nsamples = 1\nvalue = [0, 2]\nclass = yes", fillcolor="#399de5"] ;
619 -> 620 ;
621 [label="entropy = 0.0\nsamples = 2\nvalue = [5, 0]\nclass = no", fillcolor="#e58139"] ;
619 -> 621 ;
622 [label="duration <= 0.88\nentropy = 0.99\nsamples = 4\nvalue = [5, 4]\nclass = no", fillcolor="#fae6d7"] ;
612 -> 622 ;
623 [label="age <= 1.19\nentropy = 0.65\nsamples = 3\nvalue = [5, 1]\nclass = no", fillcolor="#ea9a61"] ;
622 -> 623 ;
624 [label="entropy = 0.0\nsamples = 1\nvalue = [0, 1]\nclass = yes", fillcolor="#399de5"] ;
623 -> 624 ;
625 [label="entropy = 0.0\nsamples = 2\nvalue = [5, 0]\nclass = no", fillcolor="#e58139"] ;
623 -> 625 ;
626 [label="entropy = 0.0\nsamples = 1\nvalue = [0, 3]\nclass = yes", fillcolor="#399de5"] ;
622 -> 626 ;
627 [label="entropy = 0.0\nsamples = 2\nvalue = [0, 5]\nclass = yes", fillcolor="#399de5"] ;
599 -> 627 ;
628 [label="age <= -0.46\nentropy = 1.0\nsamples = 11\nvalue = [10, 10]\nclass = no", fillcolor="#ffffff"] ;
598 -> 628 ;
629 [label="previous <= 0.38\nentropy = 0.76\nsamples = 4\nvalue = [7, 2]\nclass = no", fillcolor="#eca572"] ;
628 -> 629 ;
630 [label="entropy = 0.0\nsamples = 1\nvalue = [0, 1]\nclass = yes", fillcolor="#399de5"] ;
629 -> 630 ;
631 [label="job_student <= 3.36\nentropy = 0.54\nsamples = 3\nvalue = [7, 1]\nclass = no", fillcolor="#e99355"] ;
629 -> 631 ;
632 [label="entropy = 0.0\nsamples = 2\nvalue = [7, 0]\nclass = no", fillcolor="#e58139"] ;
631 -> 632 ;
633 [label="entropy = 0.0\nsamples = 1\nvalue = [0, 1]\nclass = yes", fillcolor="#399de5"] ;
631 -> 633 ;
634 [label="campaign <= -0.41\nentropy = 0.85\nsamples = 7\nvalue = [3, 8]\nclass = yes", fillcolor="#83c2ef"] ;
628 -> 634 ;
635 [label="balance <= 7.11\nentropy = 1.0\nsamples = 2\nvalue = [2, 2]\nclass = no", fillcolor="#ffffff"] ;
634 -> 635 ;
636 [label="entropy = 0.0\nsamples = 1\nvalue = [0, 2]\nclass = yes", fillcolor="#399de5"] ;
635 -> 636 ;
637 [label="entropy = 0.0\nsamples = 1\nvalue = [2, 0]\nclass = no", fillcolor="#e58139"] ;
635 -> 637 ;
638 [label="day <= -0.4\nentropy = 0.59\nsamples = 5\nvalue = [1, 6]\nclass = yes", fillcolor="#5aade9"] ;
634 -> 638 ;
639 [label="entropy = 0.0\nsamples = 2\nvalue = [0, 3]\nclass = yes", fillcolor="#399de5"] ;
638 -> 639 ;
640 [label="previous <= 1.0\nentropy = 0.81\nsamples = 3\nvalue = [1, 3]\nclass = yes", fillcolor="#7bbeee"] ;
638 -> 640 ;
641 [label="month_may <= 0.43\nentropy = 0.92\nsamples = 2\nvalue = [1, 2]\nclass = yes", fillcolor="#9ccef2"] ;
640 -> 641 ;
642 [label="entropy = 0.0\nsamples = 1\nvalue = [0, 2]\nclass = yes", fillcolor="#399de5"] ;
641 -> 642 ;
643 [label="entropy = 0.0\nsamples = 1\nvalue = [1, 0]\nclass = no", fillcolor="#e58139"] ;
641 -> 643 ;
644 [label="entropy = 0.0\nsamples = 1\nvalue = [0, 1]\nclass = yes", fillcolor="#399de5"] ;
640 -> 644 ;
645 [label="month_aug <= 1.04\nentropy = 0.53\nsamples = 19\nvalue = [22, 3]\nclass = no", fillcolor="#e99254"] ;
519 -> 645 ;
646 [label="pdays <= 1.75\nentropy = 0.43\nsamples = 17\nvalue = [21, 2]\nclass = no", fillcolor="#e78d4c"] ;
645 -> 646 ;
647 [label="previous <= 0.79\nentropy = 0.92\nsamples = 5\nvalue = [4, 2]\nclass = no", fillcolor="#f2c09c"] ;
646 -> 647 ;
648 [label="campaign <= -0.41\nentropy = 0.92\nsamples = 3\nvalue = [1, 2]\nclass = yes", fillcolor="#9ccef2"] ;
647 -> 648 ;
649 [label="entropy = 0.0\nsamples = 2\nvalue = [0, 2]\nclass = yes", fillcolor="#399de5"] ;
648 -> 649 ;
650 [label="entropy = 0.0\nsamples = 1\nvalue = [1, 0]\nclass = no", fillcolor="#e58139"] ;
648 -> 650 ;
651 [label="entropy = 0.0\nsamples = 2\nvalue = [3, 0]\nclass = no", fillcolor="#e58139"] ;
647 -> 651 ;
652 [label="entropy = 0.0\nsamples = 12\nvalue = [17, 0]\nclass = no", fillcolor="#e58139"] ;
646 -> 652 ;
653 [label="age <= 1.14\nentropy = 1.0\nsamples = 2\nvalue = [1, 1]\nclass = no", fillcolor="#ffffff"] ;
645 -> 653 ;
654 [label="entropy = 0.0\nsamples = 1\nvalue = [0, 1]\nclass = yes", fillcolor="#399de5"] ;
653 -> 654 ;
655 [label="entropy = 0.0\nsamples = 1\nvalue = [1, 0]\nclass = no", fillcolor="#e58139"] ;
653 -> 655 ;
656 [label="balance <= -0.12\nentropy = 0.46\nsamples = 419\nvalue = [605, 66]\nclass = no", fillcolor="#e88f4f"] ;
502 -> 656 ;
657 [label="entropy = 0.0\nsamples = 11\nvalue = [17, 0]\nclass = no", fillcolor="#e58139"] ;
656 -> 657 ;
658 [label="job_unemployed <= 2.81\nentropy = 0.47\nsamples = 408\nvalue = [588, 66]\nclass = no", fillcolor="#e88f4f"] ;
656 -> 658 ;
659 [label="campaign <= -0.41\nentropy = 0.45\nsamples = 399\nvalue = [578, 59]\nclass = no", fillcolor="#e88e4d"] ;
658 -> 659 ;
660 [label="balance <= -0.12\nentropy = 0.53\nsamples = 194\nvalue = [279, 38]\nclass = no", fillcolor="#e99254"] ;
659 -> 660 ;
661 [label="loan_no <= -0.93\nentropy = 0.99\nsamples = 4\nvalue = [5, 4]\nclass = no", fillcolor="#fae6d7"] ;
660 -> 661 ;
662 [label="entropy = 0.0\nsamples = 1\nvalue = [4, 0]\nclass = no", fillcolor="#e58139"] ;
661 -> 662 ;
663 [label="job_management <= 0.71\nentropy = 0.72\nsamples = 3\nvalue = [1, 4]\nclass = yes", fillcolor="#6ab6ec"] ;
661 -> 663 ;
664 [label="entropy = 0.0\nsamples = 2\nvalue = [0, 4]\nclass = yes", fillcolor="#399de5"] ;
663 -> 664 ;
665 [label="entropy = 0.0\nsamples = 1\nvalue = [1, 0]\nclass = no", fillcolor="#e58139"] ;
663 -> 665 ;
666 [label="day <= -1.0\nentropy = 0.5\nsamples = 190\nvalue = [274, 34]\nclass = no", fillcolor="#e89152"] ;
660 -> 666 ;
667 [label="day <= -1.72\nentropy = 0.8\nsamples = 46\nvalue = [46, 15]\nclass = no", fillcolor="#edaa7a"] ;
666 -> 667 ;
668 [label="entropy = 0.0\nsamples = 3\nvalue = [5, 0]\nclass = no", fillcolor="#e58139"] ;
667 -> 668 ;
669 [label="pdays <= 1.57\nentropy = 0.84\nsamples = 43\nvalue = [41, 15]\nclass = no", fillcolor="#efaf81"] ;
667 -> 669 ;
670 [label="month_jun <= 1.19\nentropy = 0.99\nsamples = 15\nvalue = [12, 10]\nclass = no", fillcolor="#fbeade"] ;
669 -> 670 ;
671 [label="month_may <= 0.43\nentropy = 0.98\nsamples = 12\nvalue = [7, 10]\nclass = yes", fillcolor="#c4e2f7"] ;
670 -> 671 ;
672 [label="month_aug <= 1.04\nentropy = 0.78\nsamples = 8\nvalue = [3, 10]\nclass = yes", fillcolor="#74baed"] ;
671 -> 672 ;
673 [label="previous <= 1.0\nentropy = 0.92\nsamples = 7\nvalue = [3, 6]\nclass = yes", fillcolor="#9ccef2"] ;
672 -> 673 ;
674 [label="entropy = 0.0\nsamples = 3\nvalue = [3, 0]\nclass = no", fillcolor="#e58139"] ;
673 -> 674 ;
675 [label="entropy = 0.0\nsamples = 4\nvalue = [0, 6]\nclass = yes", fillcolor="#399de5"] ;
673 -> 675 ;
676 [label="entropy = 0.0\nsamples = 1\nvalue = [0, 4]\nclass = yes", fillcolor="#399de5"] ;
672 -> 676 ;
677 [label="entropy = 0.0\nsamples = 4\nvalue = [4, 0]\nclass = no", fillcolor="#e58139"] ;
671 -> 677 ;
678 [label="entropy = 0.0\nsamples = 3\nvalue = [5, 0]\nclass = no", fillcolor="#e58139"] ;
670 -> 678 ;
679 [label="age <= -0.79\nentropy = 0.6\nsamples = 28\nvalue = [29, 5]\nclass = no", fillcolor="#e9975b"] ;
669 -> 679 ;
680 [label="entropy = 0.0\nsamples = 8\nvalue = [11, 0]\nclass = no", fillcolor="#e58139"] ;
679 -> 680 ;
681 [label="education_secondary <= -0.03\nentropy = 0.76\nsamples = 20\nvalue = [18, 5]\nclass = no", fillcolor="#eca470"] ;
679 -> 681 ;
682 [label="entropy = 0.0\nsamples = 6\nvalue = [7, 0]\nclass = no", fillcolor="#e58139"] ;
681 -> 682 ;
683 [label="job_services <= 1.42\nentropy = 0.9\nsamples = 14\nvalue = [11, 5]\nclass = no", fillcolor="#f1ba93"] ;
681 -> 683 ;
684 [label="age <= 0.15\nentropy = 0.92\nsamples = 13\nvalue = [10, 5]\nclass = no", fillcolor="#f2c09c"] ;
683 -> 684 ;
685 [label="balance <= 0.44\nentropy = 0.81\nsamples = 3\nvalue = [1, 3]\nclass = yes", fillcolor="#7bbeee"] ;
684 -> 685 ;
686 [label="entropy = 0.0\nsamples = 1\nvalue = [1, 0]\nclass = no", fillcolor="#e58139"] ;
685 -> 686 ;
687 [label="entropy = 0.0\nsamples = 2\nvalue = [0, 3]\nclass = yes", fillcolor="#399de5"] ;
685 -> 687 ;
688 [label="duration <= 0.01\nentropy = 0.68\nsamples = 10\nvalue = [9, 2]\nclass = no", fillcolor="#eb9d65"] ;
684 -> 688 ;
689 [label="entropy = 0.0\nsamples = 9\nvalue = [9, 0]\nclass = no", fillcolor="#e58139"] ;
688 -> 689 ;
690 [label="entropy = 0.0\nsamples = 1\nvalue = [0, 2]\nclass = yes", fillcolor="#399de5"] ;
688 -> 690 ;
691 [label="entropy = 0.0\nsamples = 1\nvalue = [1, 0]\nclass = no", fillcolor="#e58139"] ;
683 -> 691 ;
692 [label="balance <= 1.16\nentropy = 0.39\nsamples = 144\nvalue = [228, 19]\nclass = no", fillcolor="#e78c49"] ;
666 -> 692 ;
693 [label="day <= 0.38\nentropy = 0.29\nsamples = 118\nvalue = [191, 10]\nclass = no", fillcolor="#e68843"] ;
692 -> 693 ;
694 [label="month_feb <= 1.89\nentropy = 0.15\nsamples = 80\nvalue = [135, 3]\nclass = no", fillcolor="#e6843d"] ;
693 -> 694 ;
695 [label="default_no <= -3.61\nentropy = 0.11\nsamples = 77\nvalue = [131, 2]\nclass = no", fillcolor="#e5833c"] ;
694 -> 695 ;
696 [label="entropy = 0.0\nsamples = 1\nvalue = [0, 1]\nclass = yes", fillcolor="#399de5"] ;
695 -> 696 ;
697 [label="marital_married <= -0.21\nentropy = 0.06\nsamples = 76\nvalue = [131, 1]\nclass = no", fillcolor="#e5823b"] ;
695 -> 697 ;
698 [label="month_jul <= 0.97\nentropy = 0.16\nsamples = 26\nvalue = [42, 1]\nclass = no", fillcolor="#e6843e"] ;
697 -> 698 ;
699 [label="entropy = 0.0\nsamples = 25\nvalue = [42, 0]\nclass = no", fillcolor="#e58139"] ;
698 -> 699 ;
700 [label="entropy = 0.0\nsamples = 1\nvalue = [0, 1]\nclass = yes", fillcolor="#399de5"] ;
698 -> 700 ;
701 [label="entropy = 0.0\nsamples = 50\nvalue = [89, 0]\nclass = no", fillcolor="#e58139"] ;
697 -> 701 ;
702 [label="age <= 0.34\nentropy = 0.72\nsamples = 3\nvalue = [4, 1]\nclass = no", fillcolor="#eca06a"] ;
694 -> 702 ;
703 [label="entropy = 0.0\nsamples = 2\nvalue = [4, 0]\nclass = no", fillcolor="#e58139"] ;
702 -> 703 ;
704 [label="entropy = 0.0\nsamples = 1\nvalue = [0, 1]\nclass = yes", fillcolor="#399de5"] ;
702 -> 704 ;
705 [label="month_jan <= 2.68\nentropy = 0.5\nsamples = 38\nvalue = [56, 7]\nclass = no", fillcolor="#e89152"] ;
693 -> 705 ;
706 [label="pdays <= 3.78\nentropy = 0.62\nsamples = 26\nvalue = [39, 7]\nclass = no", fillcolor="#ea985d"] ;
705 -> 706 ;
707 [label="duration <= 0.76\nentropy = 0.28\nsamples = 23\nvalue = [39, 2]\nclass = no", fillcolor="#e68743"] ;
706 -> 707 ;
708 [label="balance <= 0.42\nentropy = 0.18\nsamples = 20\nvalue = [37, 1]\nclass = no", fillcolor="#e6843e"] ;
707 -> 708 ;
709 [label="entropy = 0.0\nsamples = 17\nvalue = [31, 0]\nclass = no", fillcolor="#e58139"] ;
708 -> 709 ;
710 [label="previous <= 0.79\nentropy = 0.59\nsamples = 3\nvalue = [6, 1]\nclass = no", fillcolor="#e9965a"] ;
708 -> 710 ;
711 [label="pdays <= 0.38\nentropy = 0.65\nsamples = 2\nvalue = [5, 1]\nclass = no", fillcolor="#ea9a61"] ;
710 -> 711 ;
712 [label="entropy = 0.0\nsamples = 1\nvalue = [0, 1]\nclass = yes", fillcolor="#399de5"] ;
711 -> 712 ;
713 [label="entropy = 0.0\nsamples = 1\nvalue = [5, 0]\nclass = no", fillcolor="#e58139"] ;
711 -> 713 ;
714 [label="entropy = 0.0\nsamples = 1\nvalue = [1, 0]\nclass = no", fillcolor="#e58139"] ;
710 -> 714 ;
715 [label="month_apr <= 1.78\nentropy = 0.92\nsamples = 3\nvalue = [2, 1]\nclass = no", fillcolor="#f2c09c"] ;
707 -> 715 ;
716 [label="entropy = 0.0\nsamples = 1\nvalue = [0, 1]\nclass = yes", fillcolor="#399de5"] ;
715 -> 716 ;
717 [label="entropy = 0.0\nsamples = 2\nvalue = [2, 0]\nclass = no", fillcolor="#e58139"] ;
715 -> 717 ;
718 [label="entropy = 0.0\nsamples = 3\nvalue = [0, 5]\nclass = yes", fillcolor="#399de5"] ;
706 -> 718 ;
719 [label="entropy = 0.0\nsamples = 12\nvalue = [17, 0]\nclass = no", fillcolor="#e58139"] ;
705 -> 719 ;
720 [label="loan_no <= -0.93\nentropy = 0.71\nsamples = 26\nvalue = [37, 9]\nclass = no", fillcolor="#eba069"] ;
692 -> 720 ;
721 [label="entropy = 0.0\nsamples = 4\nvalue = [8, 0]\nclass = no", fillcolor="#e58139"] ;
720 -> 721 ;
722 [label="age <= -1.26\nentropy = 0.79\nsamples = 22\nvalue = [29, 9]\nclass = no", fillcolor="#eda876"] ;
720 -> 722 ;
723 [label="entropy = 0.0\nsamples = 1\nvalue = [0, 2]\nclass = yes", fillcolor="#399de5"] ;
722 -> 723 ;
724 [label="duration <= 0.16\nentropy = 0.71\nsamples = 21\nvalue = [29, 7]\nclass = no", fillcolor="#eb9f69"] ;
722 -> 724 ;
725 [label="entropy = 0.0\nsamples = 12\nvalue = [23, 0]\nclass = no", fillcolor="#e58139"] ;
724 -> 725 ;
726 [label="marital_married <= -0.21\nentropy = 1.0\nsamples = 9\nvalue = [6, 7]\nclass = yes", fillcolor="#e3f1fb"] ;
724 -> 726 ;
727 [label="entropy = 0.0\nsamples = 3\nvalue = [0, 3]\nclass = yes", fillcolor="#399de5"] ;
726 -> 727 ;
728 [label="age <= -0.7\nentropy = 0.97\nsamples = 6\nvalue = [6, 4]\nclass = no", fillcolor="#f6d5bd"] ;
726 -> 728 ;
729 [label="entropy = 0.0\nsamples = 2\nvalue = [4, 0]\nclass = no", fillcolor="#e58139"] ;
728 -> 729 ;
730 [label="day <= -0.7\nentropy = 0.92\nsamples = 4\nvalue = [2, 4]\nclass = yes", fillcolor="#9ccef2"] ;
728 -> 730 ;
731 [label="entropy = 0.0\nsamples = 1\nvalue = [2, 0]\nclass = no", fillcolor="#e58139"] ;
730 -> 731 ;
732 [label="entropy = 0.0\nsamples = 3\nvalue = [0, 4]\nclass = yes", fillcolor="#399de5"] ;
730 -> 732 ;
733 [label="job_services <= 1.42\nentropy = 0.35\nsamples = 205\nvalue = [299, 21]\nclass = no", fillcolor="#e78a47"] ;
659 -> 733 ;
734 [label="month_may <= 0.43\nentropy = 0.3\nsamples = 181\nvalue = [270, 15]\nclass = no", fillcolor="#e68844"] ;
733 -> 734 ;
735 [label="day <= -0.64\nentropy = 0.35\nsamples = 90\nvalue = [143, 10]\nclass = no", fillcolor="#e78a47"] ;
734 -> 735 ;
736 [label="day <= -1.48\nentropy = 0.11\nsamples = 39\nvalue = [67, 1]\nclass = no", fillcolor="#e5833c"] ;
735 -> 736 ;
737 [label="job_self-employed <= 2.53\nentropy = 0.25\nsamples = 14\nvalue = [23, 1]\nclass = no", fillcolor="#e68642"] ;
736 -> 737 ;
738 [label="entropy = 0.0\nsamples = 13\nvalue = [23, 0]\nclass = no", fillcolor="#e58139"] ;
737 -> 738 ;
739 [label="entropy = 0.0\nsamples = 1\nvalue = [0, 1]\nclass = yes", fillcolor="#399de5"] ;
737 -> 739 ;
740 [label="entropy = 0.0\nsamples = 25\nvalue = [44, 0]\nclass = no", fillcolor="#e58139"] ;
736 -> 740 ;
741 [label="month_aug <= 1.04\nentropy = 0.49\nsamples = 51\nvalue = [76, 9]\nclass = no", fillcolor="#e89050"] ;
735 -> 741 ;
742 [label="previous <= 2.86\nentropy = 0.4\nsamples = 46\nvalue = [70, 6]\nclass = no", fillcolor="#e78c4a"] ;
741 -> 742 ;
743 [label="marital_divorced <= 1.2\nentropy = 0.32\nsamples = 42\nvalue = [64, 4]\nclass = no", fillcolor="#e78945"] ;
742 -> 743 ;
744 [label="duration <= 1.13\nentropy = 0.34\nsamples = 38\nvalue = [60, 4]\nclass = no", fillcolor="#e78946"] ;
743 -> 744 ;
745 [label="campaign <= 0.24\nentropy = 0.12\nsamples = 35\nvalue = [59, 1]\nclass = no", fillcolor="#e5833c"] ;
744 -> 745 ;
746 [label="entropy = 0.0\nsamples = 28\nvalue = [51, 0]\nclass = no", fillcolor="#e58139"] ;
745 -> 746 ;
747 [label="month_feb <= 1.89\nentropy = 0.5\nsamples = 7\nvalue = [8, 1]\nclass = no", fillcolor="#e89152"] ;
745 -> 747 ;
748 [label="entropy = 0.0\nsamples = 5\nvalue = [7, 0]\nclass = no", fillcolor="#e58139"] ;
747 -> 748 ;
749 [label="age <= 0.43\nentropy = 1.0\nsamples = 2\nvalue = [1, 1]\nclass = no", fillcolor="#ffffff"] ;
747 -> 749 ;
750 [label="entropy = 0.0\nsamples = 1\nvalue = [0, 1]\nclass = yes", fillcolor="#399de5"] ;
749 -> 750 ;
751 [label="entropy = 0.0\nsamples = 1\nvalue = [1, 0]\nclass = no", fillcolor="#e58139"] ;
749 -> 751 ;
752 [label="previous <= 0.79\nentropy = 0.81\nsamples = 3\nvalue = [1, 3]\nclass = yes", fillcolor="#7bbeee"] ;
744 -> 752 ;
753 [label="entropy = 0.0\nsamples = 2\nvalue = [0, 3]\nclass = yes", fillcolor="#399de5"] ;
752 -> 753 ;
754 [label="entropy = 0.0\nsamples = 1\nvalue = [1, 0]\nclass = no", fillcolor="#e58139"] ;
752 -> 754 ;
755 [label="entropy = 0.0\nsamples = 4\nvalue = [4, 0]\nclass = no", fillcolor="#e58139"] ;
743 -> 755 ;
756 [label="pdays <= 2.13\nentropy = 0.81\nsamples = 4\nvalue = [6, 2]\nclass = no", fillcolor="#eeab7b"] ;
742 -> 756 ;
757 [label="entropy = 0.0\nsamples = 1\nvalue = [0, 2]\nclass = yes", fillcolor="#399de5"] ;
756 -> 757 ;
758 [label="entropy = 0.0\nsamples = 3\nvalue = [6, 0]\nclass = no", fillcolor="#e58139"] ;
756 -> 758 ;
759 [label="balance <= 1.89\nentropy = 0.92\nsamples = 5\nvalue = [6, 3]\nclass = no", fillcolor="#f2c09c"] ;
741 -> 759 ;
760 [label="day <= 0.74\nentropy = 0.97\nsamples = 4\nvalue = [2, 3]\nclass = yes", fillcolor="#bddef6"] ;
759 -> 760 ;
761 [label="entropy = 0.0\nsamples = 2\nvalue = [0, 3]\nclass = yes", fillcolor="#399de5"] ;
760 -> 761 ;
762 [label="entropy = 0.0\nsamples = 2\nvalue = [2, 0]\nclass = no", fillcolor="#e58139"] ;
760 -> 762 ;
763 [label="entropy = 0.0\nsamples = 1\nvalue = [4, 0]\nclass = no", fillcolor="#e58139"] ;
759 -> 763 ;
764 [label="job_technician <= 0.88\nentropy = 0.23\nsamples = 91\nvalue = [127, 5]\nclass = no", fillcolor="#e68641"] ;
734 -> 764 ;
765 [label="previous <= 0.79\nentropy = 0.26\nsamples = 80\nvalue = [108, 5]\nclass = no", fillcolor="#e68742"] ;
764 -> 765 ;
766 [label="entropy = 0.0\nsamples = 45\nvalue = [66, 0]\nclass = no", fillcolor="#e58139"] ;
765 -> 766 ;
767 [label="education_tertiary <= 0.45\nentropy = 0.49\nsamples = 35\nvalue = [42, 5]\nclass = no", fillcolor="#e89051"] ;
765 -> 767 ;
768 [label="age <= -0.32\nentropy = 0.19\nsamples = 24\nvalue = [33, 1]\nclass = no", fillcolor="#e6853f"] ;
767 -> 768 ;
769 [label="previous <= 1.21\nentropy = 0.39\nsamples = 10\nvalue = [12, 1]\nclass = no", fillcolor="#e78c49"] ;
768 -> 769 ;
770 [label="entropy = 0.0\nsamples = 5\nvalue = [7, 0]\nclass = no", fillcolor="#e58139"] ;
769 -> 770 ;
771 [label="balance <= 0.61\nentropy = 0.65\nsamples = 5\nvalue = [5, 1]\nclass = no", fillcolor="#ea9a61"] ;
769 -> 771 ;
772 [label="balance <= 0.15\nentropy = 0.92\nsamples = 3\nvalue = [2, 1]\nclass = no", fillcolor="#f2c09c"] ;
771 -> 772 ;
773 [label="entropy = 0.0\nsamples = 2\nvalue = [2, 0]\nclass = no", fillcolor="#e58139"] ;
772 -> 773 ;
774 [label="entropy = 0.0\nsamples = 1\nvalue = [0, 1]\nclass = yes", fillcolor="#399de5"] ;
772 -> 774 ;
775 [label="entropy = 0.0\nsamples = 2\nvalue = [3, 0]\nclass = no", fillcolor="#e58139"] ;
771 -> 775 ;
776 [label="entropy = 0.0\nsamples = 14\nvalue = [21, 0]\nclass = no", fillcolor="#e58139"] ;
768 -> 776 ;
777 [label="marital_divorced <= 1.2\nentropy = 0.89\nsamples = 11\nvalue = [9, 4]\nclass = no", fillcolor="#f1b991"] ;
767 -> 777 ;
778 [label="campaign <= 1.37\nentropy = 0.92\nsamples = 10\nvalue = [8, 4]\nclass = no", fillcolor="#f2c09c"] ;
777 -> 778 ;
779 [label="campaign <= 0.08\nentropy = 0.97\nsamples = 9\nvalue = [6, 4]\nclass = no", fillcolor="#f6d5bd"] ;
778 -> 779 ;
780 [label="entropy = 0.0\nsamples = 1\nvalue = [1, 0]\nclass = no", fillcolor="#e58139"] ;
779 -> 780 ;
781 [label="balance <= 0.61\nentropy = 0.99\nsamples = 8\nvalue = [5, 4]\nclass = no", fillcolor="#fae6d7"] ;
779 -> 781 ;
782 [label="entropy = 0.0\nsamples = 3\nvalue = [0, 3]\nclass = yes", fillcolor="#399de5"] ;
781 -> 782 ;
783 [label="job_student <= 3.36\nentropy = 0.65\nsamples = 5\nvalue = [5, 1]\nclass = no", fillcolor="#ea9a61"] ;
781 -> 783 ;
784 [label="day <= -0.16\nentropy = 0.72\nsamples = 4\nvalue = [4, 1]\nclass = no", fillcolor="#eca06a"] ;
783 -> 784 ;
785 [label="entropy = 0.0\nsamples = 3\nvalue = [4, 0]\nclass = no", fillcolor="#e58139"] ;
784 -> 785 ;
786 [label="entropy = 0.0\nsamples = 1\nvalue = [0, 1]\nclass = yes", fillcolor="#399de5"] ;
784 -> 786 ;
787 [label="entropy = 0.0\nsamples = 1\nvalue = [1, 0]\nclass = no", fillcolor="#e58139"] ;
783 -> 787 ;
788 [label="entropy = 0.0\nsamples = 1\nvalue = [2, 0]\nclass = no", fillcolor="#e58139"] ;
778 -> 788 ;
789 [label="entropy = 0.0\nsamples = 1\nvalue = [1, 0]\nclass = no", fillcolor="#e58139"] ;
777 -> 789 ;
790 [label="entropy = 0.0\nsamples = 11\nvalue = [19, 0]\nclass = no", fillcolor="#e58139"] ;
764 -> 790 ;
791 [label="balance <= 0.39\nentropy = 0.66\nsamples = 24\nvalue = [29, 6]\nclass = no", fillcolor="#ea9b62"] ;
733 -> 791 ;
792 [label="campaign <= -0.08\nentropy = 0.88\nsamples = 16\nvalue = [14, 6]\nclass = no", fillcolor="#f0b78e"] ;
791 -> 792 ;
793 [label="education_secondary <= -0.03\nentropy = 0.97\nsamples = 7\nvalue = [6, 4]\nclass = no", fillcolor="#f6d5bd"] ;
792 -> 793 ;
794 [label="entropy = 0.0\nsamples = 1\nvalue = [0, 3]\nclass = yes", fillcolor="#399de5"] ;
793 -> 794 ;
795 [label="month_apr <= 1.78\nentropy = 0.59\nsamples = 6\nvalue = [6, 1]\nclass = no", fillcolor="#e9965a"] ;
793 -> 795 ;
796 [label="entropy = 0.0\nsamples = 4\nvalue = [5, 0]\nclass = no", fillcolor="#e58139"] ;
795 -> 796 ;
797 [label="duration <= 1.89\nentropy = 1.0\nsamples = 2\nvalue = [1, 1]\nclass = no", fillcolor="#ffffff"] ;
795 -> 797 ;
798 [label="entropy = 0.0\nsamples = 1\nvalue = [1, 0]\nclass = no", fillcolor="#e58139"] ;
797 -> 798 ;
799 [label="entropy = 0.0\nsamples = 1\nvalue = [0, 1]\nclass = yes", fillcolor="#399de5"] ;
797 -> 799 ;
800 [label="month_feb <= 1.89\nentropy = 0.72\nsamples = 9\nvalue = [8, 2]\nclass = no", fillcolor="#eca06a"] ;
792 -> 800 ;
801 [label="campaign <= 0.56\nentropy = 0.76\nsamples = 8\nvalue = [7, 2]\nclass = no", fillcolor="#eca572"] ;
800 -> 801 ;
802 [label="entropy = 0.0\nsamples = 5\nvalue = [5, 0]\nclass = no", fillcolor="#e58139"] ;
801 -> 802 ;
803 [label="pdays <= 2.91\nentropy = 1.0\nsamples = 3\nvalue = [2, 2]\nclass = no", fillcolor="#ffffff"] ;
801 -> 803 ;
804 [label="entropy = 0.0\nsamples = 1\nvalue = [1, 0]\nclass = no", fillcolor="#e58139"] ;
803 -> 804 ;
805 [label="previous <= 0.79\nentropy = 0.92\nsamples = 2\nvalue = [1, 2]\nclass = yes", fillcolor="#9ccef2"] ;
803 -> 805 ;
806 [label="entropy = 0.0\nsamples = 1\nvalue = [1, 0]\nclass = no", fillcolor="#e58139"] ;
805 -> 806 ;
807 [label="entropy = 0.0\nsamples = 1\nvalue = [0, 2]\nclass = yes", fillcolor="#399de5"] ;
805 -> 807 ;
808 [label="entropy = 0.0\nsamples = 1\nvalue = [1, 0]\nclass = no", fillcolor="#e58139"] ;
800 -> 808 ;
809 [label="entropy = 0.0\nsamples = 8\nvalue = [15, 0]\nclass = no", fillcolor="#e58139"] ;
791 -> 809 ;
810 [label="campaign <= -0.08\nentropy = 0.98\nsamples = 9\nvalue = [10, 7]\nclass = no", fillcolor="#f7d9c4"] ;
658 -> 810 ;
811 [label="duration <= 0.16\nentropy = 0.86\nsamples = 8\nvalue = [10, 4]\nclass = no", fillcolor="#efb388"] ;
810 -> 811 ;
812 [label="entropy = 0.0\nsamples = 6\nvalue = [10, 0]\nclass = no", fillcolor="#e58139"] ;
811 -> 812 ;
813 [label="entropy = 0.0\nsamples = 2\nvalue = [0, 4]\nclass = yes", fillcolor="#399de5"] ;
811 -> 813 ;
814 [label="entropy = 0.0\nsamples = 1\nvalue = [0, 3]\nclass = yes", fillcolor="#399de5"] ;
810 -> 814 ;
815 [label="day <= 0.08\nentropy = 0.41\nsamples = 207\nvalue = [310, 28]\nclass = no", fillcolor="#e78c4b"] ;
501 -> 815 ;
816 [label="contact_cellular <= -0.31\nentropy = 0.94\nsamples = 17\nvalue = [16, 9]\nclass = no", fillcolor="#f4c8a8"] ;
815 -> 816 ;
817 [label="entropy = 0.0\nsamples = 3\nvalue = [6, 0]\nclass = no", fillcolor="#e58139"] ;
816 -> 817 ;
818 [label="pdays <= 0.56\nentropy = 1.0\nsamples = 14\nvalue = [10, 9]\nclass = no", fillcolor="#fcf2eb"] ;
816 -> 818 ;
819 [label="poutcome_failure <= 1.26\nentropy = 0.72\nsamples = 4\nvalue = [1, 4]\nclass = yes", fillcolor="#6ab6ec"] ;
818 -> 819 ;
820 [label="entropy = 0.0\nsamples = 2\nvalue = [0, 3]\nclass = yes", fillcolor="#399de5"] ;
819 -> 820 ;
821 [label="previous <= 0.38\nentropy = 1.0\nsamples = 2\nvalue = [1, 1]\nclass = no", fillcolor="#ffffff"] ;
819 -> 821 ;
822 [label="entropy = 0.0\nsamples = 1\nvalue = [0, 1]\nclass = yes", fillcolor="#399de5"] ;
821 -> 822 ;
823 [label="entropy = 0.0\nsamples = 1\nvalue = [1, 0]\nclass = no", fillcolor="#e58139"] ;
821 -> 823 ;
824 [label="previous <= 1.21\nentropy = 0.94\nsamples = 10\nvalue = [9, 5]\nclass = no", fillcolor="#f3c7a7"] ;
818 -> 824 ;
825 [label="job_unemployed <= 2.81\nentropy = 0.99\nsamples = 8\nvalue = [6, 5]\nclass = no", fillcolor="#fbeade"] ;
824 -> 825 ;
826 [label="pdays <= 1.37\nentropy = 0.95\nsamples = 6\nvalue = [3, 5]\nclass = yes", fillcolor="#b0d8f5"] ;
825 -> 826 ;
827 [label="entropy = 0.0\nsamples = 2\nvalue = [3, 0]\nclass = no", fillcolor="#e58139"] ;
826 -> 827 ;
828 [label="entropy = 0.0\nsamples = 4\nvalue = [0, 5]\nclass = yes", fillcolor="#399de5"] ;
826 -> 828 ;
829 [label="entropy = 0.0\nsamples = 2\nvalue = [3, 0]\nclass = no", fillcolor="#e58139"] ;
825 -> 829 ;
830 [label="entropy = 0.0\nsamples = 2\nvalue = [3, 0]\nclass = no", fillcolor="#e58139"] ;
824 -> 830 ;
831 [label="poutcome_success <= 2.62\nentropy = 0.33\nsamples = 190\nvalue = [294, 19]\nclass = no", fillcolor="#e78946"] ;
815 -> 831 ;
832 [label="balance <= 0.38\nentropy = 0.29\nsamples = 180\nvalue = [279, 15]\nclass = no", fillcolor="#e68844"] ;
831 -> 832 ;
833 [label="pdays <= 1.52\nentropy = 0.44\nsamples = 84\nvalue = [128, 13]\nclass = no", fillcolor="#e88e4d"] ;
832 -> 833 ;
834 [label="duration <= 0.67\nentropy = 0.4\nsamples = 82\nvalue = [127, 11]\nclass = no", fillcolor="#e78c4a"] ;
833 -> 834 ;
835 [label="entropy = 0.0\nsamples = 72\nvalue = [118, 0]\nclass = no", fillcolor="#e58139"] ;
834 -> 835 ;
836 [label="poutcome_failure <= 1.26\nentropy = 0.99\nsamples = 10\nvalue = [9, 11]\nclass = yes", fillcolor="#dbedfa"] ;
834 -> 836 ;
837 [label="day <= 0.32\nentropy = 0.81\nsamples = 5\nvalue = [6, 2]\nclass = no", fillcolor="#eeab7b"] ;
836 -> 837 ;
838 [label="entropy = 0.0\nsamples = 1\nvalue = [0, 1]\nclass = yes", fillcolor="#399de5"] ;
837 -> 838 ;
839 [label="job_blue-collar <= 0.7\nentropy = 0.59\nsamples = 4\nvalue = [6, 1]\nclass = no", fillcolor="#e9965a"] ;
837 -> 839 ;
840 [label="balance <= 0.05\nentropy = 0.65\nsamples = 3\nvalue = [5, 1]\nclass = no", fillcolor="#ea9a61"] ;
839 -> 840 ;
841 [label="entropy = 0.0\nsamples = 2\nvalue = [5, 0]\nclass = no", fillcolor="#e58139"] ;
840 -> 841 ;
842 [label="entropy = 0.0\nsamples = 1\nvalue = [0, 1]\nclass = yes", fillcolor="#399de5"] ;
840 -> 842 ;
843 [label="entropy = 0.0\nsamples = 1\nvalue = [1, 0]\nclass = no", fillcolor="#e58139"] ;
839 -> 843 ;
844 [label="day <= 0.44\nentropy = 0.81\nsamples = 5\nvalue = [3, 9]\nclass = yes", fillcolor="#7bbeee"] ;
836 -> 844 ;
845 [label="job_retired <= 2.06\nentropy = 0.97\nsamples = 3\nvalue = [3, 2]\nclass = no", fillcolor="#f6d5bd"] ;
844 -> 845 ;
846 [label="entropy = 0.0\nsamples = 2\nvalue = [3, 0]\nclass = no", fillcolor="#e58139"] ;
845 -> 846 ;
847 [label="entropy = 0.0\nsamples = 1\nvalue = [0, 2]\nclass = yes", fillcolor="#399de5"] ;
845 -> 847 ;
848 [label="entropy = 0.0\nsamples = 2\nvalue = [0, 7]\nclass = yes", fillcolor="#399de5"] ;
844 -> 848 ;
849 [label="balance <= -0.02\nentropy = 0.92\nsamples = 2\nvalue = [1, 2]\nclass = yes", fillcolor="#9ccef2"] ;
833 -> 849 ;
850 [label="entropy = 0.0\nsamples = 1\nvalue = [0, 2]\nclass = yes", fillcolor="#399de5"] ;
849 -> 850 ;
851 [label="entropy = 0.0\nsamples = 1\nvalue = [1, 0]\nclass = no", fillcolor="#e58139"] ;
849 -> 851 ;
852 [label="job_services <= 1.42\nentropy = 0.1\nsamples = 96\nvalue = [151, 2]\nclass = no", fillcolor="#e5833c"] ;
832 -> 852 ;
853 [label="day <= 0.2\nentropy = 0.12\nsamples = 84\nvalue = [127, 2]\nclass = no", fillcolor="#e5833c"] ;
852 -> 853 ;
854 [label="duration <= 2.69\nentropy = 0.37\nsamples = 10\nvalue = [13, 1]\nclass = no", fillcolor="#e78b48"] ;
853 -> 854 ;
855 [label="entropy = 0.0\nsamples = 9\nvalue = [13, 0]\nclass = no", fillcolor="#e58139"] ;
854 -> 855 ;
856 [label="entropy = 0.0\nsamples = 1\nvalue = [0, 1]\nclass = yes", fillcolor="#399de5"] ;
854 -> 856 ;
857 [label="balance <= 3.6\nentropy = 0.07\nsamples = 74\nvalue = [114, 1]\nclass = no", fillcolor="#e5823b"] ;
853 -> 857 ;
858 [label="entropy = 0.0\nsamples = 70\nvalue = [110, 0]\nclass = no", fillcolor="#e58139"] ;
857 -> 858 ;
859 [label="pdays <= 0.6\nentropy = 0.72\nsamples = 4\nvalue = [4, 1]\nclass = no", fillcolor="#eca06a"] ;
857 -> 859 ;
860 [label="entropy = 0.0\nsamples = 1\nvalue = [0, 1]\nclass = yes", fillcolor="#399de5"] ;
